element,0,1,2,3,4,5,6,7,8,9,10,11,12,13,14,15,16,17,18,19,20,21,22,23,24,25,26,27,28,29,30,31,32,33,34,35,36,37,38,39,40,41,42,43,44,45,46,47,48,49,50,51,52,53,54,55,56,57,58,59,60,61,62,63,64,65,66,67,68,69,70,71,72,73,74,75,76,77,78,79,80,81,82,83,84,85,86,87,88,89,90,91,92,93,94,95,96,97,98,99,100,101,102,103,104,105,106,107,108,109,110,111,112,113,114,115,116,117,118,119,120,121,122,123,124,125,126,127,128,129,130,131,132,133,134,135,136,137,138,139,140,141,142,143,144,145,146,147,148,149,150,151,152,153,154,155,156,157,158,159,160,161,162,163,164,165,166,167,168,169,170,171,172,173,174,175,176,177,178,179,180,181,182,183,184,185,186,187,188,189,190,191,192,193,194,195,196,197,198,199,200,201,202,203,204,205,206,207,208,209,210,211,212,213,214,215,216,217,218,219,220,221,222,223,224,225,226,227,228,229,230,231,232,233,234,235,236,237,238,239,240,241,242,243,244,245,246,247,248,249,250,251,252,253,254,255,256,257,258,259,260,261,262,263,264,265,266,267,268,269,270,271,272,273,274,275,276,277,278,279,280,281,282,283,284,285,286,287,288,289,290,291,292,293,294,295,296,297,298,299,300,301,302,303,304,305,306,307,308,309,310,311,312,313,314,315,316,317,318,319,320,321,322,323,324,325,326,327,328,329,330,331,332,333,334,335,336,337,338,339,340,341,342,343,344,345,346,347,348,349,350,351,352,353,354,355,356,357,358,359,360,361,362,363,364,365,366,367,368,369,370,371,372,373,374,375,376,377,378,379,380,381,382,383,384,385,386,387,388,389,390,391,392,393,394,395,396,397,398,399,400,401,402,403,404,405,406,407,408,409,410,411,412,413,414,415,416,417,418,419,420,421,422,423,424,425,426,427,428,429,430,431,432,433,434,435,436,437,438,439,440,441,442,443,444,445,446,447,448,449,450,451,452,453,454,455,456,457,458,459,460,461,462,463,464,465,466,467,468,469,470,471,472,473,474,475,476,477,478,479,480,481,482,483,484,485,486,487,488,489,490,491,492,493,494,495,496,497,498,499,500,501,502,503,504,505,506,507,508,509,510,511
P6/mmm_sg,0.16906175017356873,-0.17684531211853027,0.04979793354868889,-0.15133371949195862,0.04198930785059929,0.0812094658613205,0.010983326472342014,-0.13739599287509918,0.1702168732881546,-0.05596787482500076,0.07088162004947662,0.11429803818464279,-0.28184786438941956,-0.07243659347295761,0.24582071602344513,0.3035300076007843,-0.16055481135845184,-0.1336076259613037,0.04168549180030823,-0.042034123092889786,0.4005112051963806,-0.2373073399066925,0.2913386821746826,0.32986149191856384,-0.32991430163383484,-0.13062210381031036,0.2681426405906677,-0.24835582077503204,0.18241608142852783,0.14739690721035004,-0.19347508251667023,0.23674999177455902,-0.3704430162906647,-0.10463951528072357,0.395910382270813,0.19485430419445038,0.014413801021873951,-0.009244647808372974,-0.28071773052215576,-0.1446630358695984,-0.010644729249179363,0.01910230703651905,-0.07670067250728607,0.5182925462722778,-0.13372911512851715,0.12779903411865234,0.18899495899677277,-0.20949213206768036,-0.11586606502532959,0.009887411259114742,0.05722004547715187,-0.028420930728316307,-0.18845130503177643,0.07744491845369339,0.05778505280613899,0.11144521087408066,0.330349326133728,-0.17524033784866333,-0.005686271470040083,0.04104664549231529,-0.46499818563461304,-0.3881196975708008,-0.10530854016542435,-0.20646600425243378,0.2587459087371826,-0.10947416722774506,0.05172920972108841,-0.2940354347229004,0.20079991221427917,0.07906870543956757,-0.08407323062419891,-0.004893766716122627,0.4221222698688507,-0.023989848792552948,-0.1063954085111618,-0.0689733624458313,-0.011752631515264511,0.05512521415948868,-0.08831696957349777,0.15523119270801544,-0.30515235662460327,-0.14427168667316437,-0.08812158554792404,0.36378973722457886,0.1113862544298172,0.17361566424369812,-0.02832617424428463,0.03060442954301834,-0.05019095167517662,0.2785368859767914,-0.014634803868830204,-0.13653664290905,-0.058309853076934814,0.0880381390452385,0.3403128683567047,0.2095262110233307,0.40358850359916687,0.07082075625658035,0.23841646313667297,-0.0994352474808693,0.30018094182014465,-0.18977855145931244,0.06904341280460358,0.008550413884222507,0.24519668519496918,0.2347678244113922,0.035596344619989395,0.04917960613965988,-0.11532776057720184,0.12982656061649323,-0.07754066586494446,0.2502681612968445,-0.09898141771554947,0.07369757443666458,0.04618847370147705,0.3808099329471588,0.12109444290399551,0.0018003486329689622,-0.06920338422060013,-0.24995680153369904,0.03416159749031067,0.05736374482512474,-0.24107451736927032,-0.12385106831789017,-0.1341160535812378,0.1471864879131317,-0.0386974923312664,0.005292778369039297,-0.08490053564310074,0.10966211557388306,-0.2526167631149292,-0.06182756647467613,0.042905766516923904,-0.10650671273469925,-0.25247907638549805,0.11879763007164001,-0.08542335778474808,-0.072077177464962,-0.13579781353473663,0.08011601865291595,-0.20023980736732483,-0.20491914451122284,-0.34304842352867126,-0.3175458014011383,0.13781335949897766,0.0690365880727768,-0.07972899079322815,0.6591021418571472,-0.03780830278992653,0.04993747919797897,0.034799084067344666,-0.598279595375061,-0.07427335530519485,0.1429252177476883,0.033730264753103256,0.1376556158065796,-0.029232770204544067,0.15942394733428955,-0.015039922669529915,0.06941984593868256,-0.24773573875427246,-0.16114012897014618,0.04674190655350685,0.16388019919395447,0.05194650590419769,-0.22127561271190643,-0.1371517926454544,0.44395187497138977,-0.12413997203111649,-0.17952322959899902,-0.5639139413833618,0.24741578102111816,0.05193391814827919,0.16431812942028046,0.15978547930717468,-0.33358389139175415,-0.2444223016500473,-0.10606580972671509,0.17266541719436646,-0.1320122927427292,0.16907642781734467,0.1802562177181244,0.18501318991184235,0.08592186868190765,0.3057778775691986,-0.07626493275165558,-0.04992247745394707,-0.12358219176530838,-0.27292290329933167,0.10456401109695435,0.2808758318424225,-0.2985333204269409,0.19468192756175995,-0.46265095472335815,0.17041653394699097,-0.25842738151550293,-0.057665299624204636,-0.009341263212263584,-0.023181675001978874,0.29097867012023926,0.09297727793455124,0.004397463984787464,-0.49288102984428406,-0.17604713141918182,0.15760189294815063,-0.1948491483926773,0.14709587395191193,0.10371988266706467,0.16458147764205933,0.22864364087581635,0.934418261051178,-0.02416486293077469,-0.37150803208351135,0.11414927244186401,-0.2523643374443054,0.111326202750206,0.11646291613578796,-0.02994227223098278,0.2566106617450714,-0.03345708176493645,-0.15382923185825348,0.19603776931762695,0.04500804841518402,0.05024003982543945,-0.3584881126880646,0.24758900701999664,-0.307314932346344,-0.048496898263692856,-0.5865986347198486,-0.0056619527749717236,0.2326851338148117,-0.18559131026268005,-0.11642662435770035,0.16543209552764893,0.1300990730524063,-0.16527293622493744,-0.06139560043811798,0.2426658570766449,-0.04824056848883629,-0.06520745158195496,0.08958061039447784,-0.4291864037513733,0.01985386572778225,-0.11705250293016434,-0.19940191507339478,0.4642711877822876,-0.061864908784627914,-0.0863245502114296,-0.15676924586296082,0.2936972677707672,0.399249792098999,0.13830165565013885,0.3258444666862488,0.14593097567558289,-0.3730776011943817,0.21880291402339935,0.009125744923949242,0.18101882934570312,0.12879163026809692,-0.3199206292629242,0.05876755341887474,0.3543104827404022,-0.08529037237167358,-0.24635516107082367,0.07104199379682541,-0.2712291479110718,-0.06803479045629501,-0.1332051157951355,-0.23766611516475677,0.5567030310630798,-0.2452918291091919,0.13167725503444672,-0.046883825212717056,-0.0034597855992615223,-0.13976307213306427,-0.04335460066795349,-0.13099424540996552,-0.14360029995441437,-0.05834485590457916,0.16667380928993225,0.11715170741081238,0.18737934529781342,0.011910529807209969,-0.10236521065235138,0.3522655963897705,0.3347153067588806,0.11722683906555176,-0.06970500200986862,0.26570913195610046,0.15454073250293732,0.11617420613765717,0.20265160501003265,-0.23698323965072632,-0.0595817044377327,-0.09421059489250183,0.09599845111370087,-0.12149776518344879,0.2789050340652466,-0.2940440773963928,-0.18340004980564117,-0.10956505686044693,0.10770229995250702,0.30708080530166626,-0.19131255149841309,-0.09883255511522293,-0.09573902189731598,-0.21080097556114197,0.05972211807966232,0.16079393029212952,0.09334772080183029,-0.06560135632753372,0.15748649835586548,0.33911022543907166,-0.4826506972312927,0.07587414979934692,0.084311343729496,0.19341693818569183,-0.18017740547657013,0.32308733463287354,0.16866476833820343,-0.08938593417406082,-0.22768592834472656,-0.10199520736932755,0.03636690229177475,-0.1618824005126953,-0.3514636754989624,0.11085221916437149,0.19472265243530273,-0.19796422123908997,0.1276875138282776,0.18894723057746887,-0.2923116385936737,-0.2295531928539276,-0.31730949878692627,0.10079187154769897,0.19528496265411377,0.12623728811740875,0.07937058806419373,-0.04737380892038345,-0.17835277318954468,0.08191943913698196,0.04432095214724541,0.1856977939605713,0.27254733443260193,-0.20492258667945862,0.513805091381073,-0.11376381665468216,-0.049563582986593246,-0.15000009536743164,0.4560193121433258,0.016272250562906265,-0.29858869314193726,-0.451190710067749,-0.38297200202941895,0.014891094528138638,-0.032535139471292496,0.32027125358581543,0.18650226294994354,-0.21306400001049042,-0.20963290333747864,-0.3861692249774933,-0.12483271956443787,0.24837236106395721,-0.1564681977033615,0.06440950185060501,-0.03321908786892891,0.0678880512714386,0.07791542261838913,-0.19106832146644592,-0.005384955555200577,-0.01906847022473812,-0.2323804646730423,-0.19190481305122375,-0.19122415781021118,0.042405761778354645,-0.04706273600459099,-0.420594722032547,-0.1787904053926468,-0.018988344818353653,-0.15151187777519226,-0.18056581914424896,-0.016846418380737305,-0.15262816846370697,-0.3108413815498352,-0.32265034317970276,0.1620073914527893,-0.29563823342323303,-0.06532002985477448,-0.44555243849754333,0.19517484307289124,-0.43682509660720825,0.1358322948217392,0.3282492458820343,-0.33085840940475464,0.35986021161079407,0.1768771857023239,0.23288337886333466,-0.13946892321109772,-0.07465822994709015,-0.11201709508895874,-0.2161135971546173,0.25533390045166016,0.2556714117527008,0.03720201924443245,0.05527100712060928,-0.5959604382514954,-0.07921131700277328,-0.05034229904413223,-0.11539288610219955,0.1406446099281311,-0.2055101841688156,-0.10572513192892075,0.10694590955972672,0.1448346972465515,0.1643378883600235,-0.07376302778720856,-0.287785142660141,-0.07574498653411865,-0.3585703670978546,-0.32059985399246216,-0.16395919024944305,0.2313031703233719,0.14053109288215637,-0.04204440861940384,-0.013586729764938354,0.26592135429382324,-0.14397940039634705,0.11628855764865875,0.11859012395143509,-0.21117529273033142,0.10825008898973465,-0.35541391372680664,-0.23362846672534943,0.10241009294986725,-0.16462762653827667,-0.26619431376457214,-0.2648973762989044,-0.26108768582344055,-0.17754006385803223,-0.1512276977300644,-0.10745164006948471,0.00571828056126833,-0.003632587380707264,-0.23271723091602325,0.17590045928955078,-0.25903111696243286,0.4365216791629791,0.4820549190044403,0.2629237771034241,-0.07338595390319824,0.07482371479272842,-0.0027062776498496532,0.022191587835550308,-0.356812447309494,0.07283677160739899,0.15887115895748138,-0.16272634267807007,-0.1795404702425003,-0.24928875267505646,-0.2028738558292389,0.4726635217666626,-0.5083721876144409,-0.16190733015537262,0.06716588139533997,-0.27505847811698914,0.0015834399964660406,0.02835172228515148,-0.09639129787683487,-0.006439157761633396,-0.006122713442891836,0.38405725359916687,0.020270904526114464,-0.37592849135398865,0.23339512944221497,-0.5684841275215149,-0.1422504037618637,0.14826714992523193,-0.4047597050666809,-0.18428248167037964,0.12271871417760849,0.21016453206539154,0.29743629693984985,0.07094720005989075,0.12196996808052063,0.09134066849946976,0.1923987865447998,-0.009083610959351063,0.051869284361600876,-0.13013866543769836,-0.2350059300661087,0.2553112804889679,0.08488564193248749,0.13912391662597656,0.2537385821342468,-0.2995681166648865,0.04012218490242958,0.321554034948349,-0.15176014602184296,-0.2848529815673828,0.15050086379051208,0.4069451689720154,0.4521050453186035,-0.24153809249401093,-0.08343200385570526,0.11167550086975098,0.010988953523337841,0.2889883816242218,-0.09664703905582428,0.39533790946006775,0.12141679972410202,0.2463202178478241,-0.24740973114967346
Imma_sg,-0.041948527097702026,0.3781634569168091,-0.1322159767150879,0.22229565680027008,-0.17991159856319427,-0.002657212782651186,0.0442129410803318,0.14971336722373962,0.2154662162065506,0.21758227050304413,0.13009794056415558,0.028191138058900833,0.015463430434465408,-0.14572368562221527,0.10917221754789352,-0.12162076681852341,0.01764163188636303,0.0003422600566409528,-0.26190099120140076,-0.17086784541606903,0.2748902142047882,-0.17851802706718445,0.09795492887496948,-0.2783668339252472,-0.0060584163293242455,-0.14331474900245667,0.28112977743148804,-0.1080864667892456,-0.024458615109324455,0.07195702195167542,-0.030759533867239952,-0.009663964621722698,-0.3291577398777008,0.46350109577178955,-0.09879562258720398,-0.26064828038215637,0.46360403299331665,0.39781442284584045,-0.0009865460451692343,0.003385059768334031,0.05950937047600746,0.02254531905055046,0.07898923009634018,0.38860875368118286,-0.16796767711639404,0.12967370450496674,0.0788431465625763,-0.3146844506263733,0.10357332974672318,-0.31636276841163635,-0.009303259663283825,0.21063557267189026,-0.6133757829666138,-0.05184084549546242,0.12850818037986755,-0.31253883242607117,0.14057005941867828,-0.037872228771448135,-0.020068233832716942,-0.3271092474460602,-0.0035788118839263916,-0.10057541728019714,-0.10395150631666183,0.20929473638534546,-0.14117126166820526,-0.2993490397930145,-0.48359474539756775,-0.38290831446647644,0.4024662375450134,0.3198232352733612,0.0722459927201271,-0.08893752843141556,0.0948106199502945,0.3045445382595062,-0.17769205570220947,-0.10086967051029205,-0.09203829616308212,-0.2790934443473816,0.026589801535010338,-0.2043362408876419,-0.23431378602981567,-0.17267504334449768,0.005249278154224157,-0.0366622693836689,-0.19671478867530823,0.24495139718055725,0.1293356865644455,-0.0175183042883873,-0.10049841552972794,-0.08022560924291611,0.14492081105709076,0.11811578273773193,-0.22288750112056732,-0.03622329235076904,-0.13755767047405243,0.0053661419078707695,0.14993804693222046,-0.19055362045764923,0.1157778799533844,0.28059545159339905,-0.23632340133190155,0.0002199867885792628,-0.3235788345336914,-0.034238554537296295,-0.01385182049125433,0.28057020902633667,-0.046144966036081314,-0.05243569239974022,0.3207891881465912,-0.39138558506965637,0.30812764167785645,-0.07614480704069138,0.16370666027069092,0.06035425141453743,-0.011211665347218513,-0.501202404499054,0.11368393152952194,-0.0740889385342598,-0.1700953245162964,-0.41513878107070923,-0.03675267845392227,0.08654030412435532,-0.12625691294670105,0.13427631556987762,-0.10822247713804245,0.12330736964941025,0.13479255139827728,0.05725281313061714,-0.13815096020698547,-0.1461610645055771,-0.09088246524333954,-0.024625640362501144,-0.06191349774599075,-0.11130257695913315,-0.24674130976200104,-0.16760709881782532,-0.08059340715408325,0.11470634490251541,-0.12477108836174011,0.07948523759841919,0.12350836396217346,-0.062194932252168655,0.0883316919207573,0.1094338595867157,0.15278518199920654,-0.05599183589220047,-0.10799053311347961,0.15270265936851501,0.43135392665863037,-0.36935344338417053,0.24450580775737762,0.17157457768917084,0.1194436177611351,0.13028587400913239,0.1745661348104477,0.13945886492729187,0.09088245779275894,0.07159087061882019,0.051655396819114685,0.32451337575912476,-0.06304135173559189,-0.05108659341931343,-4.367236397229135e-05,-0.32118454575538635,0.1729746311903,0.04274116829037666,-0.0202998835593462,-0.11187119036912918,-0.5797261595726013,0.028397615998983383,0.10369867086410522,-0.1233760267496109,-0.2885313630104065,-0.07172193378210068,0.19968357682228088,-0.037126895040273666,-0.010080909356474876,0.04299277812242508,-0.003289881395176053,-0.06957966089248657,0.04196099564433098,0.15916381776332855,-0.25658708810806274,0.019653696566820145,0.20440801978111267,0.12283018231391907,-0.35944780707359314,0.14822760224342346,-0.21582168340682983,-0.349015474319458,0.228936105966568,-0.14350999891757965,-0.07950908690690994,-0.07615518569946289,-0.082363061606884,-0.1820887327194214,0.3026379644870758,-0.11677519232034683,0.4498761296272278,0.7266800999641418,0.29202091693878174,0.18486236035823822,-0.08666722476482391,0.32303398847579956,0.07371304929256439,-0.07004920393228531,-0.009772740304470062,-0.14534787833690643,-0.08265677094459534,0.07916378974914551,0.8033372759819031,0.14305372536182404,0.06293309479951859,0.08058763295412064,0.22131569683551788,0.009290684945881367,-0.23131585121154785,-0.22989952564239502,0.14841698110103607,0.0019184899283573031,-0.06688017398118973,-0.17648372054100037,0.20885971188545227,0.12032583355903625,-0.326993852853775,0.1018548458814621,-0.21473105251789093,0.24112893640995026,-0.25189125537872314,0.015000996179878712,0.3507761061191559,-0.20596633851528168,0.12857943773269653,-0.07901574671268463,-0.006231632549315691,0.42889073491096497,0.08891978114843369,0.040538888424634933,0.2739913761615753,0.2022572010755539,-0.10252469033002853,-0.16669556498527527,0.049929428845644,0.08366992324590683,-0.08446292579174042,-0.07490529865026474,-0.2309141457080841,-0.09053206443786621,0.12159031629562378,0.2218177616596222,0.0526830330491066,-0.18635976314544678,0.31265920400619507,0.04525158926844597,-0.16742117702960968,0.06719721108675003,0.19186216592788696,-0.3704677224159241,-0.11333288252353668,0.18023864924907684,0.003166171023622155,0.3596368730068207,-0.2090221345424652,-0.2754703462123871,0.0345422588288784,0.11672064661979675,-0.14403393864631653,-0.06172533333301544,0.12188631296157837,0.2385520040988922,-0.04830941557884216,-0.31525662541389465,0.24956470727920532,-0.028932789340615273,-0.13953736424446106,-0.04035863280296326,-0.1608375906944275,0.06886737048625946,-0.49631041288375854,-0.22190701961517334,0.017126908525824547,-0.14551867544651031,-0.1282718926668167,-0.12229378521442413,0.042556170374155045,0.2860252559185028,-0.4189356863498688,-0.07215438038110733,0.19193680584430695,-0.02865186333656311,0.1410718560218811,-0.06765998899936676,-0.2699596583843231,0.32034891843795776,0.22481828927993774,0.08566984534263611,-0.20765471458435059,0.3547615110874176,0.3279210031032562,0.018380526453256607,0.29390615224838257,-0.31816840171813965,0.4462146759033203,-0.022350074723362923,-0.16431011259555817,-0.252060204744339,-0.1702979952096939,-0.12622222304344177,-0.07930953055620193,-0.059512462466955185,-0.2130611538887024,0.2117782086133957,0.190855011343956,0.049164190888404846,0.07723642140626907,-0.20360159873962402,-0.12777991592884064,-0.2093806266784668,0.32063692808151245,-0.21610642969608307,0.12231382727622986,-0.1807435005903244,-0.35464730858802795,-0.07124282419681549,0.26204776763916016,-0.5205985903739929,-0.16806954145431519,-0.06761933863162994,0.14696595072746277,0.30299505591392517,0.1183587908744812,-0.0032624697778373957,0.34638333320617676,0.023826584219932556,0.14631737768650055,-0.1296040415763855,-0.179743230342865,0.029694389551877975,-0.045312415808439255,-0.07008004933595657,0.06937317550182343,-0.023788776248693466,0.07069870829582214,0.02264861948788166,0.027170754969120026,0.11158701032400131,-0.21727217733860016,0.3325326144695282,-0.22312505543231964,0.23165862262248993,-0.24395371973514557,0.24099412560462952,-0.23080071806907654,-0.22311931848526,0.211264967918396,-0.20237895846366882,0.04888283088803291,0.23461830615997314,-0.11372455954551697,-0.2381700724363327,-0.2357911318540573,-0.10927140712738037,-0.23507897555828094,-0.12917834520339966,0.0812792032957077,0.0662483349442482,-0.5419337153434753,-0.17556370794773102,0.036945924162864685,0.04567018523812294,-0.1548135131597519,-0.13511821627616882,-0.06571821868419647,-0.08464410156011581,0.3555704355239868,-0.13454149663448334,-0.19285285472869873,0.1622643619775772,0.17388670146465302,-0.21165385842323303,0.015254282392561436,0.06694500893354416,-0.17095080018043518,0.03394235670566559,0.328891783952713,-0.4010075330734253,0.08756052702665329,-0.13366591930389404,0.15860751271247864,-0.0800383985042572,0.13616858422756195,-0.03078346699476242,-0.14933829009532928,0.1582445502281189,0.27545294165611267,-0.2258763313293457,0.13127852976322174,0.17014944553375244,-0.06728580594062805,-0.06893488019704819,-0.22481143474578857,0.43465596437454224,0.40537217259407043,0.024911362677812576,0.08263708651065826,-0.4226808249950409,-0.23842713236808777,-0.07742364704608917,-0.17476633191108704,-0.013607692904770374,-0.22591544687747955,0.1741737425327301,-0.06903260201215744,0.0847734659910202,0.19355015456676483,0.0795833170413971,-0.3499583899974823,0.1734100729227066,0.016077440232038498,0.014525036327540874,0.4081987142562866,-0.10587021708488464,0.12002729624509811,0.30466848611831665,-0.10916772484779358,-0.016275953501462936,-0.02654203772544861,-0.004079842008650303,0.2503097951412201,-0.11684442311525345,-0.17399479448795319,-0.6042884588241577,-0.37459200620651245,0.10322079062461853,0.11594086140394211,-0.17289042472839355,-0.1336946040391922,-0.006898573599755764,-0.5603920221328735,-0.12304344773292542,0.45450589060783386,-0.09478399902582169,0.19564537703990936,0.09842921048402786,-0.08697766810655594,0.18973231315612793,0.34307122230529785,-0.22910702228546143,-0.08140327781438828,-0.21383896470069885,0.17643515765666962,0.27707502245903015,-0.12876492738723755,-0.14935441315174103,-0.1401502639055252,-0.2963135242462158,-0.12776035070419312,0.1371472179889679,-0.10798308253288269,-0.5454957485198975,0.3535923957824707,-0.3205954134464264,0.27864304184913635,-0.33158788084983826,-0.22058521211147308,0.04002998396754265,0.041592199355363846,-0.15458796918392181,0.2052168846130371,-0.08840882033109665,-0.16070570051670074,0.01685337722301483,-0.17986410856246948,0.04176655784249306,-0.5322774052619934,0.35701966285705566,-0.045093268156051636,-0.40370169281959534,-0.10399921238422394,0.13901923596858978,-0.21885931491851807,-0.15625077486038208,-0.07276980578899384,0.23642347753047943,-0.010500245727598667,0.05341300740838051,-0.05847487598657608,0.1478910744190216,-0.11424553394317627,0.2704041302204132,-0.053989678621292114,0.17710982263088226,0.038330912590026855,0.02111639641225338,-0.433975487947464,0.1370842009782791,0.11415289342403412,0.177885040640831,0.11455795168876648,0.33007439970970154,-0.06836836785078049,0.6534444093704224,-0.23744302988052368,-0.24829722940921783,0.17107537388801575,0.2933487296104431,0.28965306282043457,-0.027087386697530746,0.35789522528648376,0.0732492208480835,-0.07087250798940659,-0.09420409053564072
P4_32_12_sg,-0.1379500776529312,0.13479703664779663,0.268934965133667,-0.45932239294052124,-0.2072138637304306,-0.834978461265564,0.19024023413658142,0.08160422742366791,-0.007196980994194746,-0.24938306212425232,0.2256111353635788,0.18113020062446594,0.30844202637672424,-0.12920230627059937,-0.3482629954814911,0.15676157176494598,-0.4204333424568176,0.0037807985208928585,0.2038053572177887,0.42412474751472473,0.09205204993486404,0.17885719239711761,-0.6714483499526978,-0.22543489933013916,-0.4293837547302246,-0.6057830452919006,-0.08696620166301727,0.015833202749490738,-0.1591286063194275,0.11099846661090851,-0.19357740879058838,-0.2203562706708908,-0.3898220658302307,-0.3181445300579071,-0.4555034339427948,-0.17911255359649658,0.2234283983707428,-0.0695984959602356,-0.4317011535167694,0.13694220781326294,-0.3398146629333496,-0.09211816638708115,-0.2752397358417511,0.9225125312805176,0.055638186633586884,0.1989494264125824,-0.04728943109512329,-0.24603389203548431,0.37329524755477905,-0.17647168040275574,0.09915316849946976,0.20966559648513794,-0.5409579873085022,0.4066636264324188,0.7181377410888672,-0.12581968307495117,0.3085051476955414,-0.12600809335708618,-0.11247988790273666,0.2686741352081299,0.12498132139444351,-0.4609183371067047,0.08242008835077286,0.2635994553565979,-0.03649039566516876,-0.2676815390586853,0.41751623153686523,0.22218242287635803,-0.17904403805732727,0.08736371248960495,-0.3098785877227783,0.2185339331626892,0.06425850093364716,-0.048266828060150146,-0.03810233250260353,-0.15250976383686066,-0.08645723760128021,-0.02110891416668892,0.007215889636427164,-0.01513083465397358,-0.5879338979721069,-0.5621470212936401,-0.24401821196079254,0.5631229877471924,-0.06954723596572876,-0.26954007148742676,-0.17176412045955658,-0.016217220574617386,-0.16799190640449524,0.26912587881088257,-0.2998373806476593,-0.08105188608169556,-0.13094283640384674,0.18813011050224304,0.25905483961105347,0.45519527792930603,-0.36359038949012756,-0.6245183348655701,0.2642783224582672,0.7984122633934021,-0.1675146073102951,-0.09673938900232315,-0.14086540043354034,0.15234212577342987,0.2874847948551178,-0.03944702073931694,-0.23290875554084778,-0.20437762141227722,0.036843281239271164,-0.16854922473430634,0.15459997951984406,-0.35427483916282654,-0.07481664419174194,-0.28850892186164856,0.011121761985123158,-0.23641711473464966,-0.1541069597005844,-0.15914183855056763,-0.42498454451560974,0.08199837058782578,-0.14639367163181305,-0.22766843438148499,-0.1557510942220688,0.23951329290866852,0.010740799829363823,0.5042537450790405,-0.1050281673669815,0.30100885033607483,-0.29838091135025024,-0.616188645362854,0.3948234021663666,-0.22630372643470764,-0.42526713013648987,-0.15328732132911682,-0.3034668266773224,0.0759013369679451,-0.013239805586636066,0.30880454182624817,-0.3394070565700531,0.044349465519189835,-0.02475663460791111,0.44968706369400024,-0.00515915360301733,-0.03793318197131157,-0.08523460477590561,0.13762375712394714,-0.2837279438972473,0.4121762812137604,0.15678147971630096,0.11260002851486206,0.21482150256633759,0.17748981714248657,-0.11289416998624802,-0.02820001170039177,-0.12821613252162933,0.3242919147014618,0.08804069459438324,-0.2267291098833084,0.3996961712837219,0.3144620358943939,-0.04438171908259392,-0.12180180847644806,-0.2785303294658661,-0.22826796770095825,0.01682901568710804,0.046075060963630676,0.04788578301668167,0.15866298973560333,-0.48618385195732117,0.14388054609298706,-0.2515013813972473,-0.6072676181793213,0.2958412766456604,0.1066613718867302,-0.10489282011985779,0.1570284515619278,-0.42146024107933044,0.31399378180503845,-0.05047926306724548,-0.05384506657719612,-0.08641872555017471,-0.14472696185112,-0.2394726276397705,0.008818120695650578,0.07031623274087906,0.008578531444072723,-0.23604179918766022,0.34797126054763794,0.2365218847990036,0.023924535140395164,-0.3764978051185608,-0.3787657618522644,0.08529400825500488,-0.41806864738464355,0.01640978828072548,0.17570661008358002,0.029415709897875786,0.04088905081152916,0.13886882364749908,0.42336344718933105,-0.22345279157161713,0.2658447325229645,-0.3845110535621643,-0.17007900774478912,-0.2367645502090454,0.28750699758529663,-0.23553845286369324,0.1290842592716217,-0.1761440932750702,-0.2808399498462677,0.5195226073265076,-0.11425338685512543,0.2890629172325134,-0.24537654221057892,-0.0945357084274292,0.3154277503490448,0.5466747879981995,0.27439337968826294,0.3637100160121918,0.08922813832759857,0.09352068603038788,0.19863270223140717,0.05139293521642685,0.33696040511131287,-0.5391724109649658,-0.2328018844127655,0.07218721508979797,0.6252568960189819,-0.025202130898833275,-0.2121051549911499,-0.15339155495166779,-0.01275015901774168,-0.12121567875146866,0.12246283143758774,0.29227572679519653,-0.10304202884435654,0.10526188462972641,0.023805508390069008,0.4048166573047638,0.35755541920661926,0.2699093520641327,-0.21252666413784027,0.042280882596969604,0.018568672239780426,-0.1851947009563446,0.06668989360332489,-0.31764253973960876,0.3345840573310852,-0.27623018622398376,-0.08868521451950073,-0.34856539964675903,0.2803451120853424,0.20616382360458374,-0.065306156873703,0.16047324240207672,0.07005667686462402,0.30608871579170227,0.1104673519730568,-0.1849953532218933,0.24733522534370422,-0.23688070476055145,0.5211834907531738,-0.0038565746508538723,-0.8123011589050293,0.3107491731643677,0.1649032086133957,0.21619988977909088,-0.07804509997367859,-0.1784379631280899,0.5990908741950989,-0.07642453163862228,-0.0894109234213829,-0.2176227569580078,0.04124956205487251,-0.34576666355133057,0.2162323296070099,-0.17850296199321747,0.0723080262541771,-0.403208464384079,0.10265066474676132,0.1828390508890152,0.23364116251468658,-0.023550385609269142,0.16183485090732574,0.2695698142051697,-0.21824106574058533,0.08956452459096909,-0.02873867191374302,-0.2318875938653946,-0.10257690399885178,0.201844722032547,0.13908015191555023,0.03046487830579281,0.3386840522289276,0.05643759295344353,0.5367628335952759,-0.0293376836925745,-0.09899486601352692,-0.2237979769706726,-0.20197097957134247,-0.11768389493227005,-0.26472148299217224,-0.000822085770778358,-0.1303514987230301,-0.6230740547180176,0.3591281473636627,-0.30908477306365967,-0.06999365240335464,0.07798600941896439,-0.12963198125362396,0.2740006148815155,0.5195167660713196,-0.3135688900947571,-0.188017800450325,-0.40912461280822754,0.11349976807832718,0.16129575669765472,-0.27672863006591797,0.31408536434173584,-0.4473879039287567,-0.12596265971660614,-0.38738662004470825,-0.0752120241522789,-0.20864902436733246,-0.07977423071861267,-0.1569502204656601,-0.015848208218812943,0.1313004046678543,-0.004414175637066364,-0.07089746743440628,-0.05054295063018799,0.24628835916519165,0.019388144835829735,-0.22920121252536774,0.10021835565567017,-0.32850202918052673,-0.1531418114900589,0.4032725691795349,0.4559168219566345,0.2581406533718109,-0.2570883631706238,0.04863249510526657,-0.27038562297821045,0.1365950107574463,0.39612269401550293,0.4075370728969574,-0.28806525468826294,-0.14726372063159943,-0.11869630962610245,-0.014383574016392231,-0.002295945305377245,-0.01587681658565998,-0.06002148613333702,0.13102738559246063,0.2889808118343353,0.05975361913442612,-0.057527195662260056,0.254782497882843,0.2549622654914856,0.37113314867019653,-0.3287450671195984,0.09918858855962753,0.1288873702287674,0.02447955310344696,0.050302889198064804,0.12167846411466599,-0.21167075634002686,-0.0020642622839659452,-0.39066994190216064,0.404145210981369,-0.11535397171974182,0.00503788236528635,-0.6631831526756287,-0.0026106112636625767,-0.092341348528862,0.1634712517261505,-0.08624022454023361,0.43136653304100037,0.47169461846351624,-0.12308390438556671,0.02420380897819996,0.37428754568099976,0.4236058294773102,0.3712366223335266,-0.007149189710617065,0.14288434386253357,0.10716217011213303,-0.37219473719596863,-0.32878702878952026,-0.7897170782089233,-0.16380585730075836,0.00642292108386755,-0.11850707232952118,-0.18692432343959808,-0.08415130525827408,-0.47121092677116394,0.10867689549922943,0.5741320848464966,0.06685813516378403,0.1682923287153244,-0.02868523634970188,0.30149000883102417,0.3757779002189636,-0.0038037030026316643,0.41377365589141846,-0.6133170127868652,-0.162726029753685,0.5814582705497742,-0.3063225746154785,0.23916026949882507,-0.5374054312705994,-0.08360457420349121,-0.4032578766345978,0.07373957335948944,-0.09611548483371735,-0.2255941927433014,-0.32693222165107727,0.2208155393600464,0.11473608762025833,0.2133025825023651,0.30630260705947876,0.3676208555698395,-0.07206526398658752,0.13857890665531158,-0.04283944144845009,0.22968363761901855,-0.5043936967849731,0.18895778059959412,0.3046911060810089,-0.2739299237728119,0.2041957825422287,-0.40408003330230713,0.05558038502931595,0.02912488579750061,-0.1307404637336731,-0.34939995408058167,0.15663102269172668,-0.025790764018893242,0.1609744429588318,-0.06969346106052399,0.12250819057226181,0.06856542080640793,-0.13601785898208618,0.33689308166503906,-0.6247372031211853,0.18686336278915405,0.6213664412498474,0.11230720579624176,-0.06168726086616516,-0.12597240507602692,-0.22493578493595123,0.09113961458206177,-0.1310424506664276,-0.0040513682179152966,0.18263351917266846,0.05038664489984512,0.06348197907209396,0.16121749579906464,0.2646181881427765,-0.2777802646160126,0.5407460927963257,-0.35502228140830994,0.46552783250808716,-0.27000749111175537,-0.0845811516046524,0.040549229830503464,0.36390775442123413,0.2476600557565689,0.3944525718688965,-0.27843043208122253,0.21885661780834198,0.557841956615448,0.08628460764884949,0.02504607103765011,-0.6200181841850281,-0.2056741863489151,-0.014320666901767254,-0.39200136065483093,0.37944120168685913,0.14415909349918365,-0.02024841494858265,-0.0581757128238678,0.20773155987262726,-0.040377918630838394,0.11735815554857254,0.4555361866950989,-0.014362210407853127,0.39321690797805786,-0.09125924110412598,-0.08410700410604477,0.2363481968641281,-0.04181469604372978,0.3380081355571747,-0.365650475025177,0.3280049264431,0.06335198879241943,0.02318338118493557,-0.050469204783439636,-0.051469795405864716,0.11145961284637451,0.06977538019418716,-0.022232607007026672,-0.09263484179973602,-0.1874677538871765,0.3525633215904236,-0.16992826759815216,0.04747047647833824,-0.4840361177921295,0.4236336946487427,0.0786842480301857,0.10215882211923599,-0.2475566565990448
P4_2/mnm_sg,0.005258419085294008,-0.16691002249717712,0.045454222708940506,0.12945665419101715,-0.35630834102630615,0.062176890671253204,0.06324096769094467,-0.3817048668861389,0.037733133882284164,-0.20048482716083527,-0.3790830373764038,-0.03128402680158615,0.04266295209527016,-0.26592567563056946,-0.0017298503080382943,0.03603464737534523,0.0694093108177185,-0.296664297580719,0.20650430023670197,-0.11374141275882721,0.31555745005607605,-0.2954616844654083,0.08887162804603577,-0.16106610000133514,-0.27707090973854065,-0.23163555562496185,0.01966276578605175,0.38938361406326294,0.32067781686782837,0.18893638253211975,-0.2690768837928772,0.02676231786608696,-0.49629247188568115,0.24970372021198273,-0.11806285381317139,-0.32442060112953186,0.5205941200256348,0.05750470235943794,-0.36883214116096497,0.15480409562587738,-0.13916821777820587,-0.07008667290210724,-0.060514166951179504,0.5265274047851562,-0.2584092915058136,0.15479029715061188,-0.06978477537631989,-0.48494645953178406,-0.09357959777116776,-0.1753140240907669,-0.21824537217617035,0.23709358274936676,-0.31019043922424316,0.1159936934709549,0.061784081161022186,0.10932120680809021,-0.014320110902190208,0.10943056643009186,0.13581040501594543,0.17385342717170715,0.01582319103181362,-0.434758722782135,-0.06852332502603531,-0.08809170126914978,-0.17265422642230988,-0.11321847885847092,0.2771984338760376,-0.1342911571264267,0.298996239900589,0.3482377827167511,-0.08829012513160706,0.26137951016426086,0.033450525254011154,-0.20724402368068695,0.2565664052963257,-0.041145578026771545,0.016681982204318047,0.06247928738594055,-0.032534774392843246,-0.07506399601697922,-0.0589083768427372,-0.08845445513725281,-0.014034894295036793,0.02138407528400421,0.04443123936653137,0.33617687225341797,0.3766501545906067,0.00848444178700447,0.0391375832259655,-0.05653826892375946,0.17167548835277557,-0.2279249131679535,-0.36277976632118225,0.2761298418045044,0.14675754308700562,-0.0029676274862140417,-0.06259950995445251,-0.21702076494693756,0.34696054458618164,-0.13860036432743073,0.10120751708745956,-0.00601263577118516,0.12434171140193939,0.027437077835202217,0.24680213630199432,-0.01618644781410694,0.17618073523044586,-0.22964508831501007,0.11409305036067963,-0.10650774836540222,-0.1452191174030304,-0.12897253036499023,0.1024695411324501,-0.07118669152259827,0.20134875178337097,-0.09326993674039841,-0.013789963908493519,0.17930184304714203,-0.37950456142425537,-0.3568086326122284,0.06494981795549393,-0.514856219291687,-0.009759571403265,-0.24420931935310364,0.40355804562568665,0.16002294421195984,-0.23860301077365875,0.2838314473628998,-0.17868207395076752,0.019646432250738144,-0.06814310699701309,-0.3915069103240967,-0.16298648715019226,-0.2536555826663971,-0.30280008912086487,-0.09829506278038025,-0.062374670058488846,-0.29012051224708557,-0.05124710500240326,0.05751706659793854,-0.10018833726644516,0.16249307990074158,-0.34555304050445557,-0.09222006052732468,0.11929698288440704,0.19207943975925446,-0.003635912435129285,0.15899717807769775,0.1537417322397232,-0.08423447608947754,0.03545254096388817,-0.0030135184060782194,-0.2941494882106781,-0.23883254826068878,0.15385642647743225,0.2665482461452484,0.05793902650475502,0.18279112875461578,0.2613462507724762,0.07393717020750046,-0.4553750157356262,-0.392968088388443,-0.05646240711212158,-0.060701046139001846,-0.21699188649654388,-0.03577708452939987,0.41363731026649475,0.28006598353385925,-0.14263761043548584,0.09760107845067978,-0.013408106751739979,-0.20837780833244324,-0.11242005228996277,-0.10485932976007462,0.293357789516449,0.24887654185295105,-0.26594284176826477,-0.0039126016199588776,0.18763524293899536,-0.10501525551080704,-0.5240585207939148,-0.15634343028068542,0.04922277480363846,0.10164868831634521,0.10340580344200134,0.16137802600860596,-0.3681495785713196,0.3130406141281128,0.2356342226266861,0.04367413371801376,0.2857650816440582,-0.012385607697069645,-0.09061285853385925,-0.07801531255245209,0.22235746681690216,-0.5116676688194275,-0.10901500284671783,-0.017575232312083244,0.056113917380571365,0.05023873597383499,0.35185056924819946,0.649808406829834,0.1775379627943039,-0.01848706416785717,0.42402583360671997,0.010679103434085846,-0.40757307410240173,-0.025509344413876534,-0.1720026284456253,-0.18222615122795105,0.7638840079307556,-0.14521899819374084,-0.13278372585773468,-0.4841715693473816,-0.03088965266942978,0.21627390384674072,0.45177027583122253,-0.2778288424015045,0.038484059274196625,0.02591031603515148,-0.2977936565876007,-0.2646057605743408,-0.09557037055492401,0.1282477080821991,-0.5244662165641785,-0.3085229694843292,0.1293492317199707,0.6484273076057434,-0.19438965618610382,0.32777950167655945,-0.25535470247268677,0.033273350447416306,0.41257336735725403,0.07431090623140335,0.10217665135860443,0.4804742634296417,0.20352838933467865,0.3195565342903137,0.21399706602096558,0.2522295117378235,0.022842172533273697,-0.3949893116950989,0.04875690117478371,0.028690602630376816,-0.3380848467350006,0.3518691956996918,-0.1172104924917221,-0.03352028876543045,0.020648658275604248,-0.4186208248138428,-0.1363290697336197,0.12147501856088638,0.031037550419569016,-0.18473708629608154,0.43142640590667725,-0.0805543065071106,0.17687104642391205,-0.22335509955883026,-0.2383357286453247,0.3069414794445038,-0.23875807225704193,0.32063496112823486,0.07545380294322968,-0.31936731934547424,0.05064962059259415,0.34098970890045166,-0.21959543228149414,0.23553068935871124,-0.16949214041233063,0.5189273357391357,-0.2709076702594757,0.19839374721050262,0.038943465799093246,0.07193626463413239,-0.31450560688972473,-0.18667104840278625,-0.03233366087079048,-0.10605026036500931,0.042352378368377686,-0.07744541764259338,0.3717283606529236,-0.02524414472281933,0.12838728725910187,-0.592028796672821,0.42702409625053406,0.29724591970443726,0.006363580469042063,0.2996963560581207,0.3882092237472534,-0.031590692698955536,0.10611595213413239,-0.0723300576210022,0.01601571775972843,0.26476022601127625,-0.029352346435189247,0.10372789949178696,-0.371276319026947,0.09125020354986191,0.032032497227191925,-0.3345056176185608,-0.0923289805650711,0.14458724856376648,0.15804043412208557,0.056899283081293106,-0.17455317080020905,-0.16401727497577667,-0.33739128708839417,-0.2606131136417389,-0.24927592277526855,0.39632052183151245,0.0006295026396401227,0.0625273585319519,-0.5220268368721008,-0.21552912890911102,-0.20906533300876617,0.051615919917821884,0.08797052502632141,-0.09321193397045135,0.3204011619091034,0.027593789622187614,0.044537194073200226,-0.017714940011501312,0.14899975061416626,-0.060511134564876556,-0.309150367975235,-0.14308896660804749,0.1440029889345169,0.29061201214790344,0.4397789537906647,0.09645745158195496,-0.24980536103248596,0.07802915573120117,0.054988473653793335,-0.2121180295944214,0.3830758333206177,0.3575805723667145,-0.12393388152122498,-0.11669239401817322,0.39272016286849976,0.231807142496109,-0.2741152048110962,0.07140056043863297,0.16385237872600555,-0.30234235525131226,-0.019779134541749954,0.2230021208524704,-0.12874814867973328,0.025224825367331505,-0.10459726303815842,0.2582821846008301,0.06437331438064575,0.5539466142654419,0.19057366251945496,-0.23827728629112244,0.09271394461393356,0.23273488879203796,-0.20215217769145966,0.2490936666727066,0.07723048329353333,0.24576999247074127,0.05632452666759491,-0.04929548129439354,0.3128080666065216,0.23086433112621307,-0.3182777166366577,0.20380263030529022,-0.2409232258796692,0.1301259994506836,-0.18089957535266876,0.11620329320430756,-0.13451595604419708,-0.12456979602575302,-0.2057269662618637,0.2990913391113281,-0.3587239980697632,0.3358425796031952,-0.055323246866464615,-0.07037805020809174,0.2526555061340332,-0.22249624133110046,0.0015976944705471396,0.15959814190864563,-0.028950514271855354,0.553589403629303,-0.07993380725383759,0.37499120831489563,-0.3275558352470398,-0.198307603597641,0.03932041674852371,-0.15798795223236084,0.05223895609378815,-0.3304859697818756,0.21245546638965607,-0.09968052059412003,0.3919210433959961,-0.00805501826107502,-0.1500341296195984,0.3402263820171356,0.21538065373897552,-0.09159281104803085,0.16364404559135437,0.35145503282546997,-0.03706752508878708,0.33125537633895874,0.17754457890987396,-0.7530327439308167,0.013542001135647297,0.24755433201789856,0.3518323004245758,-0.07949819415807724,-0.06631310284137726,0.002309584990143776,0.2640802264213562,0.23904718458652496,-0.3189074993133545,-0.43955928087234497,-0.0645286962389946,0.05391956865787506,-0.21522216498851776,-0.08300342410802841,-0.16233128309249878,-0.2759590446949005,-0.44091498851776123,0.18151243031024933,0.27348002791404724,0.14391262829303741,-0.20007339119911194,0.057202331721782684,0.09168863296508789,-0.25561806559562683,-0.1381189227104187,-0.44756555557250977,-0.032041292637586594,0.09020812064409256,-0.20230789482593536,-0.1520373672246933,-0.204228475689888,0.0321386344730854,0.15124064683914185,-0.20678365230560303,0.19053258001804352,0.05646680295467377,0.23187173902988434,-0.1810292750597,-0.47091662883758545,0.26183122396469116,0.33760929107666016,0.35204148292541504,-0.5352454781532288,0.10463286936283112,-0.10336005687713623,0.08316200971603394,0.014996121637523174,-0.24793007969856262,0.242319256067276,0.2900450527667999,-0.2719976603984833,0.4554544687271118,0.14810553193092346,-0.22376883029937744,0.16462035477161407,-0.35921868681907654,-0.09812325984239578,-0.42213279008865356,-0.2880690097808838,-0.2677268385887146,-0.009797452948987484,0.22151786088943481,0.29183289408683777,-0.38680708408355713,0.15514834225177765,0.23279327154159546,-0.48408061265945435,0.004566051531583071,-0.5490363836288452,-0.6132396459579468,-0.41530948877334595,-0.392123818397522,-0.2690388560295105,0.10878842324018478,0.33278268575668335,-0.10880953818559647,0.19161346554756165,-0.09112188220024109,-0.057121358811855316,0.017866941168904305,-0.2880658507347107,0.1415005326271057,0.11436215788125992,0.1931128352880478,-0.3490598797798157,-0.2099953442811966,-0.030953044071793556,0.16200681030750275,0.07523263245820999,0.37526997923851013,0.021050455048680305,-0.05556000396609306,0.11135193705558777,0.478600412607193,-0.03371865302324295,0.592944324016571,-0.1492566466331482,-0.11325980722904205,0.21140658855438232,-0.30073082447052,-0.2625516653060913,-0.0640326514840126,0.4582150876522064,-0.10637670010328293,0.07568642497062683,-0.43533721566200256
Fd-3m_sg,-0.13037855923175812,0.07911808043718338,0.038489699363708496,0.03848284110426903,-0.30389079451560974,-0.04400884360074997,-0.19083210825920105,-0.11872667819261551,-0.1574028581380844,0.06549494713544846,-0.35346534848213196,-0.06695380806922913,0.3333173394203186,-0.3208695352077484,-0.08299902081489563,0.07226402312517166,0.24567654728889465,0.1812211573123932,0.12311121076345444,-0.19154903292655945,-0.04504302144050598,0.31931790709495544,0.3571266531944275,0.13749748468399048,-0.5066841244697571,-0.42501363158226013,0.2905336618423462,-0.12352637201547623,0.04493516683578491,0.05966998264193535,-0.27544113993644714,-0.13158775866031647,-0.4259612560272217,-0.15846389532089233,-0.3161834478378296,-0.14529509842395782,0.15359210968017578,-0.07102107256650925,0.17501550912857056,-0.06975354254245758,0.2405126839876175,0.2082928568124771,-0.03177030012011528,0.19673289358615875,0.06598804146051407,-0.005221565254032612,-0.14155355095863342,-0.3952109217643738,-0.04045959934592247,-0.011665115132927895,-0.0905638337135315,0.22951897978782654,-0.08465408533811569,0.1768968254327774,0.046566929668188095,0.11767691373825073,0.10501326620578766,-0.3278164863586426,0.036915138363838196,-0.043294697999954224,-0.028605867177248,-0.030037857592105865,-0.09542176872491837,-0.12471333891153336,-0.164516419172287,-0.08006108552217484,-0.0027124425396323204,-0.10754115134477615,0.2637842297554016,-0.1925622522830963,-0.02279200218617916,0.01142394170165062,0.3249165117740631,0.2524050772190094,0.12546372413635254,0.5626924633979797,0.15366420149803162,-0.15309390425682068,0.0816216915845871,0.027951188385486603,-0.19143377244472504,-0.2944961190223694,-0.21477913856506348,-0.21082565188407898,0.45092758536338806,-0.25922831892967224,0.07409852743148804,-0.09568452090024948,0.09580688923597336,0.1560518741607666,0.27750322222709656,-0.007765362970530987,-0.19751347601413727,0.31559431552886963,0.39046552777290344,0.2666245698928833,-0.051529016345739365,-0.20074766874313354,0.09669451415538788,-0.027840154245495796,-0.056339602917432785,-0.24998410046100616,-0.21560445427894592,0.0008021905669011176,0.049270130693912506,0.04530373215675354,0.0063811070285737514,0.06720363348722458,0.2795533537864685,-0.19866660237312317,0.005883446428924799,-0.22712814807891846,-0.007710520643740892,0.013790495693683624,-0.06580853462219238,0.05290935933589935,-0.04665670171380043,-0.06236348673701286,-0.1810050904750824,-0.25668859481811523,0.024265633895993233,-0.11004755645990372,-0.2565512955188751,-0.1259642243385315,-0.19357900321483612,-0.007690505124628544,0.4785875380039215,0.1050787940621376,-0.1632518172264099,-0.17343349754810333,0.07558861374855042,-0.5155429244041443,0.12171979993581772,0.22733837366104126,-0.04004441574215889,-0.09601689875125885,-0.08144605159759521,0.12768568098545074,-0.20526324212551117,0.08024892210960388,-0.017523793503642082,0.0849362164735794,0.015230821445584297,0.18459421396255493,-0.32452768087387085,0.2942296862602234,0.11975318938493729,0.0844823345541954,0.29972049593925476,-0.11412899941205978,0.07261758297681808,0.2139180600643158,-0.1521357148885727,0.042557597160339355,0.3286083936691284,0.07049064338207245,-0.14472231268882751,0.20234045386314392,0.43506860733032227,0.20052415132522583,0.0860503613948822,0.05037153884768486,0.01130691822618246,-0.32023629546165466,-0.16730011999607086,-0.05343519151210785,0.27804580330848694,0.05822238698601723,-0.28188297152519226,0.06263850629329681,-0.11535540223121643,-0.11659050732851028,-0.24729043245315552,-0.08367791771888733,0.07607190310955048,-0.1369045525789261,0.237963005900383,-0.1775272637605667,-0.20823273062705994,-0.06955491006374359,-0.17930451035499573,-0.07176422327756882,-0.20901933312416077,-0.11518621444702148,-0.1102106049656868,-0.054971903562545776,0.035412706434726715,0.22343780100345612,0.09317033737897873,-0.19188036024570465,0.1540437936782837,-0.5017536878585815,0.24758976697921753,-0.2930501401424408,0.2190057784318924,0.09857764095067978,0.2127099633216858,0.27596333622932434,-0.26209762692451477,0.427622526884079,-0.05123068392276764,0.33244532346725464,-0.21947389841079712,-0.006866925396025181,0.24680227041244507,0.07618268579244614,-0.24463032186031342,-0.043754417449235916,-0.021520158275961876,0.2618403136730194,0.3030126690864563,0.24020344018936157,0.301984578371048,0.15749739110469818,0.255808562040329,0.2424737513065338,-0.016410041600465775,0.07212179154157639,0.1272491067647934,-0.37647804617881775,-0.20697486400604248,-0.05097942799329758,0.14595985412597656,0.12073856592178345,-0.39908209443092346,0.07166502624750137,0.07625921815633774,0.6152326464653015,0.05937906354665756,0.18264015018939972,-0.1747935563325882,-0.2084687501192093,0.2396342009305954,0.26188719272613525,0.05279341712594032,0.09543170034885406,0.04431973397731781,-0.031046519055962563,-0.058360420167446136,0.2067635953426361,0.132919043302536,-0.22343479096889496,-0.03223301097750664,0.061692457646131516,-0.291241317987442,-0.268239289522171,-0.10821333527565002,-0.06463413685560226,0.05463995039463043,0.4040229916572571,0.14342047274112701,-0.04507648944854736,-0.12401360273361206,0.001281802193261683,0.1556519865989685,0.07406356185674667,-0.3017217218875885,-0.3480062782764435,-0.04563738778233528,-0.13033053278923035,-0.12194385379552841,0.3484204113483429,0.07552286982536316,-0.15399391949176788,0.11644104868173599,0.02018137462437153,-0.32441437244415283,0.003875778755173087,0.13261519372463226,0.0544615238904953,-0.17693351209163666,0.3054828345775604,-0.2431183010339737,-0.028253823518753052,-0.04913986101746559,-0.18881186842918396,-0.0737895667552948,-0.28337952494621277,-0.23471245169639587,-0.1280754655599594,0.07194125652313232,-0.024286001920700073,-0.16733741760253906,0.0874428004026413,0.10830286890268326,0.23040178418159485,0.3040035367012024,0.00856232549995184,0.13138236105442047,0.21105720102787018,0.12780404090881348,0.11424736678600311,0.20628370344638824,0.2731294631958008,0.13410578668117523,-0.00903613306581974,-0.2829776704311371,0.11046696454286575,-0.11401454359292984,-0.26440170407295227,0.11372072249650955,-0.07596461474895477,0.2710173726081848,-0.2631455659866333,0.00031965767266228795,-0.19925335049629211,0.03346772491931915,-0.03454776480793953,-0.05974012240767479,-0.12461033463478088,0.10516779869794846,0.11426116526126862,0.12649033963680267,-0.16065430641174316,0.14678189158439636,0.04505971446633339,-0.01907404139637947,0.12189125269651413,0.3358084261417389,-0.29989296197891235,-0.2514059543609619,0.027869397774338722,0.2863673269748688,-0.3012476861476898,0.004932552110403776,-0.22022157907485962,-0.20420187711715698,-0.06501414626836777,0.19555611908435822,0.09264850616455078,0.016847699880599976,-0.08409154415130615,0.13548514246940613,-0.04593398794531822,-0.0008619159925729036,0.23541733622550964,-0.20748446881771088,-0.0545608215034008,-0.1610233187675476,-0.20616555213928223,-0.0347135029733181,-0.35830527544021606,-0.09934891760349274,0.046874675899744034,-0.10845822840929031,0.3626082241535187,0.038639944046735764,0.1194273978471756,-0.21959629654884338,0.22942154109477997,-0.07329302281141281,-0.21183684468269348,-0.010283553041517735,-0.10636430978775024,0.07242535054683685,-0.16701754927635193,-0.06679942458868027,0.18024513125419617,0.0072881611995399,-0.17648327350616455,-0.06785746663808823,-0.10197284072637558,0.043865565210580826,0.07688174396753311,0.15804758667945862,-0.1251026839017868,0.07495792955160141,-0.1864742487668991,-0.032241277396678925,0.24670405685901642,-0.08568349480628967,-0.06713368743658066,-0.17671538889408112,-0.09024596214294434,0.12747730314731598,0.1766938716173172,-0.2499971240758896,0.09282886236906052,0.009663914330303669,-0.3598990738391876,-0.01695740967988968,-0.20727939903736115,0.25700491666793823,0.0765637457370758,-0.021945230662822723,0.06162065640091896,-0.14051708579063416,0.11698239296674728,0.14671537280082703,0.3833329975605011,-0.2609202265739441,0.30701252818107605,-0.11032337695360184,0.08985747396945953,-0.004249504301697016,-0.0877237617969513,-0.12263715267181396,0.19199587404727936,-0.1726236641407013,-0.022051939740777016,0.14069712162017822,0.2283732295036316,0.25052937865257263,-0.31493163108825684,0.4125279486179352,-0.458780437707901,-0.30742716789245605,0.058834291994571686,0.01899654231965542,-0.01689976267516613,-0.01632014662027359,-0.25600770115852356,-0.01998629793524742,0.10680945962667465,0.15013790130615234,-0.03700712323188782,-0.3167954981327057,-0.05281636491417885,-0.32204803824424744,-0.0547555610537529,0.37133657932281494,-0.11683829128742218,-0.09691882878541946,0.08176273107528687,-0.00919314380735159,-0.060324326157569885,0.10108315199613571,0.009433331899344921,-0.04154288396239281,0.17911405861377716,0.1198480948805809,-0.31654226779937744,-0.3681001663208008,0.10047785192728043,-0.2776203453540802,-0.20392824709415436,-0.21415317058563232,0.29466986656188965,-0.4547337591648102,-0.1379915326833725,-0.04909522458910942,0.16492348909378052,0.14427722990512848,-0.24163638055324554,-0.15579837560653687,0.22076179087162018,0.21301588416099548,0.03305798023939133,0.060896072536706924,-0.28822803497314453,0.004792339634150267,0.008735353127121925,-0.08748176693916321,-0.0955061987042427,-0.2745288014411926,0.16923215985298157,0.037953924387693405,0.05970310419797897,-0.015445578843355179,-0.3994368314743042,0.24221664667129517,-0.13272802531719208,0.13940896093845367,0.1301812380552292,-0.2999652624130249,-0.02483447641134262,0.13277050852775574,-0.06462487578392029,0.2441502809524536,-0.08925671875476837,0.27789273858070374,0.1291481852531433,-0.12812355160713196,0.16361263394355774,-0.3620328903198242,-0.04669291153550148,0.0699997991323471,-0.40010151267051697,-0.13465256989002228,-0.07713945209980011,-0.10778670758008957,0.055003855377435684,-0.08408278971910477,0.07327979058027267,0.04164094850420952,0.2660210132598877,-0.042610958218574524,0.3094974756240845,-0.004307949915528297,-0.00048255553701892495,-0.3595505654811859,-0.3379633128643036,-0.204511821269989,0.10133238881826401,-0.034595273435115814,0.1817866563796997,0.3556624948978424,-0.11785370111465454,0.13546882569789886,0.12528768181800842,0.041184037923812866,0.4711519181728363,-0.01547855045646429,0.35864511132240295,-0.18099699914455414,0.4483923614025116,0.18712358176708221,0.01190057210624218,0.46566084027290344,0.15082600712776184,-0.17231687903404236,0.07195845246315002
P3m1_sg,0.24400803446769714,-0.36929142475128174,0.19207237660884857,-0.26214873790740967,-0.37985244393348694,0.2501092553138733,0.3243860602378845,-0.11007433384656906,0.277304083108902,-0.07436226308345795,0.029476646333932877,-0.025297293439507484,-0.15056325495243073,0.004890826530754566,0.4538133442401886,-0.21949608623981476,0.04250187426805496,-0.2047906368970871,0.20217354595661163,-0.08957424759864807,0.2336985170841217,-0.04346270486712456,0.15610848367214203,0.18501265347003937,-0.14086580276489258,0.07296670973300934,0.36865565180778503,-0.09978046268224716,-0.14000673592090607,-0.19350528717041016,0.02756098099052906,0.26348617672920227,-0.2279166430234909,-0.01086506713181734,-0.2074972540140152,0.3090808689594269,-0.2813992202281952,-0.06770066171884537,0.10424180328845978,0.03641694784164429,0.10989189147949219,-0.005940452218055725,-0.4063027501106262,0.3334066569805145,-0.23397968709468842,-0.1400492787361145,0.028250256553292274,-0.4008054733276367,0.24768123030662537,-0.18210721015930176,0.2463771253824234,-0.22238801419734955,-0.20249439775943756,-0.2759123742580414,0.05607936903834343,-0.1316644251346588,0.2240476757287979,0.1481863111257553,-0.03242386132478714,-0.17735444009304047,-0.11552570760250092,0.09276199340820312,-0.10360568016767502,-0.06540632992982864,0.19060175120830536,0.034426234662532806,0.013486347161233425,-0.013341733254492283,-0.0227414108812809,-0.012616229243576527,0.041604816913604736,-0.2700846493244171,0.14917489886283875,0.0491507314145565,-0.23667576909065247,0.0771898627281189,0.28234392404556274,-0.03789230063557625,-0.18915049731731415,-0.014859848655760288,-0.13967736065387726,0.09542752057313919,0.05185918137431145,0.39121484756469727,-0.314558207988739,-0.047315265983343124,0.021872449666261673,-0.21719582378864288,-0.23503780364990234,0.5060291886329651,-0.03300873935222626,-0.10461864620447159,-0.2672410011291504,-0.19993707537651062,0.03023938462138176,0.25078481435775757,-0.0979001447558403,-0.02683931402862072,-0.005775908473879099,0.33820462226867676,0.00010075222235172987,-0.03629938140511513,0.005367443431168795,-0.2480798363685608,0.03801973536610603,0.3122533857822418,0.3664829432964325,0.27031078934669495,-0.11390440165996552,0.0414770245552063,-0.136412113904953,-0.31836968660354614,0.0570812001824379,0.317533940076828,0.19702355563640594,0.22716830670833588,0.1829817146062851,0.11862777173519135,-0.2416013777256012,0.0507858470082283,0.08265282958745956,0.05302309989929199,-0.20665644109249115,0.057317860424518585,0.3701627254486084,0.22173412144184113,-0.45467081665992737,-0.031096868216991425,0.36805054545402527,-0.2457399219274521,0.17537522315979004,-0.3303954303264618,0.3261585831642151,0.06731124222278595,-0.13424117863178253,-0.020248163491487503,-0.0894656628370285,0.25405153632164,-0.3622608184814453,0.08564085513353348,-0.1152174100279808,-0.23559418320655823,0.061914995312690735,0.1754637062549591,0.19621287286281586,-0.12615330517292023,-0.22066229581832886,0.3120824098587036,0.3344387114048004,0.07518699765205383,0.09613404422998428,0.32120639085769653,0.0113186901435256,0.06640063226222992,-0.11881300061941147,0.05322033539414406,-0.3018931448459625,0.24621108174324036,0.11655090004205704,-0.06428059190511703,0.021151553839445114,-0.028294099494814873,6.592468707822263e-05,0.09523016214370728,-0.1190945953130722,-0.22921453416347504,0.2183235138654709,0.18789322674274445,-0.28447040915489197,-0.1270335465669632,-0.06114516779780388,-0.19524922966957092,0.3450213074684143,-0.14591598510742188,-0.12205580621957779,0.22288374602794647,-0.20137280225753784,0.15183965861797333,0.2919028699398041,0.03850740194320679,-0.028243141248822212,0.22843283414840698,-0.2028464525938034,0.24177035689353943,0.400748610496521,0.4296942949295044,-0.031262390315532684,0.08778917789459229,-0.22034227848052979,0.049139171838760376,0.009594435803592205,-0.2824068069458008,-0.01293683610856533,-0.32034263014793396,0.1810855269432068,-0.0903022438287735,0.018063323572278023,-0.28315213322639465,-0.20800885558128357,0.2549516558647156,0.022366151213645935,-0.007503759115934372,0.17518851161003113,-0.03901371359825134,0.11552935093641281,-0.13388019800186157,0.4101486802101135,-0.028658056631684303,-0.4093624949455261,0.017298588529229164,0.459301620721817,0.020129995420575142,-0.03958864137530327,-0.2892337739467621,-0.16532038152217865,-0.10983996838331223,-0.003934308886528015,0.11489398777484894,-0.0066818720661103725,0.04627509415149689,-0.013399875722825527,-0.05930883064866066,-0.18844395875930786,-0.03937613219022751,-0.63148033618927,-0.366018146276474,-0.19184908270835876,0.37332630157470703,-0.4915706217288971,-0.024599002674221992,0.008414662443101406,-0.08409927785396576,0.25402453541755676,0.13352325558662415,0.11549030244350433,-0.06555095314979553,0.05911494418978691,0.10936963558197021,-0.04345289617776871,-0.283176451921463,0.10560159385204315,0.004256722517311573,0.12262612581253052,-0.12565021216869354,-0.30194705724716187,-0.004015264101326466,-0.18009820580482483,-0.09156202524900436,-0.02128802053630352,-0.15292559564113617,0.14663752913475037,0.16989745199680328,0.04678840935230255,0.04690870642662048,-0.234466552734375,-0.16228216886520386,-0.16934826970100403,0.1897185742855072,0.06422606110572815,-0.23611539602279663,0.09776340425014496,0.6252098083496094,0.014187895692884922,-0.18482980132102966,0.032494161278009415,-0.13386417925357819,-0.08466289192438126,-0.052051275968551636,-0.2507442533969879,0.32823067903518677,-0.47578057646751404,-0.09777820110321045,0.13469089567661285,0.06145854666829109,0.1277298480272293,-0.44439423084259033,-0.19228588044643402,-0.14252012968063354,-0.12965188920497894,0.06218188628554344,0.2299555540084839,0.14120104908943176,0.014913556165993214,0.2894267737865448,0.2631497085094452,0.2501010000705719,-0.11929527670145035,-0.016311559826135635,0.09592180699110031,0.18916156888008118,-0.054249778389930725,0.08898165822029114,-0.3321579396724701,-0.23581485450267792,0.13766373693943024,0.03532307595014572,-0.05417512357234955,-0.014913716353476048,0.30039772391319275,-0.00395270437002182,-0.2075497806072235,-0.06196754053235054,0.44037142395973206,-0.16817188262939453,-0.0974690169095993,-0.1277557909488678,-0.09254295378923416,-0.3525746762752533,0.4748593866825104,-0.040663719177246094,-0.2111102044582367,0.22178788483142853,0.14158901572227478,-0.2970338761806488,-0.18668632209300995,0.29214879870414734,-0.16676008701324463,-0.3360300362110138,0.3272082209587097,-0.08929956704378128,-0.14940236508846283,0.13291171193122864,-0.2966901957988739,0.25318002700805664,-0.13820023834705353,-0.390004426240921,0.17715677618980408,0.2876403331756592,-0.1925659477710724,0.1635003685951233,0.23924221098423004,-0.25649628043174744,-0.26409706473350525,-0.08098340779542923,0.18803538382053375,-0.311063677072525,-0.2092042714357376,0.337442547082901,-0.29443690180778503,-0.2561790645122528,-0.18153367936611176,0.2330353558063507,0.08258984982967377,0.1834055781364441,-0.1362113505601883,0.12192822992801666,0.16383494436740875,-0.18492035567760468,-0.2417111098766327,-0.02357529290020466,-0.08505339175462723,0.17419783771038055,-0.08715489506721497,0.2377377301454544,0.050898149609565735,-0.17686478793621063,0.020010774955153465,0.011744314804673195,0.06331977993249893,-0.30636659264564514,-0.5861770510673523,-0.10093937069177628,0.04530106112360954,-0.2845460772514343,0.15128089487552643,0.06771478056907654,0.09136440604925156,-0.1079867035150528,-0.20192265510559082,-0.03323597460985184,-0.27102118730545044,-0.18346963822841644,-0.14271534979343414,-0.19067761301994324,-0.051075708121061325,-0.014003594405949116,-0.13948124647140503,0.0046071819961071014,0.2971123158931732,0.16778796911239624,-0.11803920567035675,-0.359391987323761,0.054432712495326996,-0.26913222670555115,0.02909969724714756,-0.1656835377216339,-0.23434260487556458,0.03638744726777077,0.18677470088005066,-0.08616416901350021,-0.26757389307022095,0.03579486906528473,0.22879330813884735,0.018492450937628746,0.10890541970729828,0.5104547142982483,-0.26036790013313293,0.07138905674219131,0.4273332953453064,-0.19448509812355042,0.09716679155826569,0.3055703043937683,0.1072852686047554,-0.14051976799964905,0.3790208697319031,-0.5274706482887268,-0.3303985595703125,0.1368677318096161,0.3563109338283539,0.012525065802037716,-0.09677520394325256,0.05030154064297676,-0.20491395890712738,0.25324904918670654,-0.15326526761054993,-0.3345981538295746,-0.2643275260925293,0.1496880054473877,0.21273702383041382,0.060960132628679276,-0.2003917396068573,-0.07233081012964249,-0.07600190490484238,0.014036300592124462,0.39686858654022217,-0.1918140947818756,-0.09732115268707275,-0.26698848605155945,-0.21907681226730347,-0.25376981496810913,0.3092955946922302,-0.1466658115386963,-0.2024923413991928,0.10655108094215393,0.022016623988747597,-0.20013397932052612,-0.2095014750957489,-0.22217850387096405,-0.06036091595888138,-0.06823022663593292,-0.0246636550873518,0.0390656478703022,0.43651309609413147,-0.19498831033706665,0.0511636845767498,0.07813865691423416,0.1511646807193756,0.07862409204244614,0.11921940743923187,-0.2523910105228424,0.3578876852989197,0.18617412447929382,-0.14390526711940765,0.23370347917079926,0.042012445628643036,0.3503979444503784,-0.026792529970407486,-0.04586702957749367,0.039940688759088516,-0.3526409864425659,0.3292548656463623,-0.5209556818008423,0.1783895641565323,0.22131559252738953,-0.05797349661588669,0.24876266717910767,-0.051331132650375366,0.3409331738948822,-0.10132337361574173,0.16134966909885406,0.053918708115816116,-0.09403330087661743,0.15331299602985382,0.24989023804664612,-0.42952945828437805,-0.2756766378879547,-0.1200953796505928,-0.4085128903388977,-0.4348942041397095,0.2129879891872406,0.15916529297828674,0.0977475494146347,0.24755240976810455,0.595981776714325,0.18210719525814056,-0.3410007655620575,-0.0978773757815361,-0.2728477120399475,0.06583935022354126,0.1143784299492836,0.16693346202373505,-0.10720056295394897,0.4402849078178406,0.23721078038215637,-0.08092985302209854,0.026304280385375023,0.2125391662120819,-0.13574282824993134,-0.09285462647676468,0.2597615420818329,-0.12678682804107666,0.14842693507671356,-0.1182657778263092,0.18638963997364044,0.033747438341379166,0.23618926107883453,-0.10859017074108124,0.057398032397031784,0.44671472907066345,-0.33754342794418335,0.2127477526664734,-0.22642070055007935
P-3_sg,-0.08290239423513412,-0.10735159367322922,0.4371124505996704,-0.10708808153867722,-0.4390563666820526,-0.1277078092098236,0.03464321792125702,0.216619074344635,0.27513381838798523,-0.0268399678170681,0.005982745438814163,0.3288125991821289,-0.047284990549087524,0.05428784340620041,-0.021575504913926125,0.3590320348739624,-0.20459064841270447,0.12118234485387802,0.11370621621608734,-0.19314688444137573,0.28267645835876465,-0.10154227167367935,0.11600358039140701,0.20997588336467743,-0.17741326987743378,-0.0723763033747673,-0.054022595286369324,-0.04757695272564888,0.07178480178117752,0.3772568106651306,0.07521407306194305,0.08128159493207932,-0.20113365352153778,-0.031024497002363205,-0.07862438261508942,0.0796542689204216,0.05897222086787224,-0.24739918112754822,-0.2522839307785034,0.06369353830814362,0.15343862771987915,0.06519244611263275,0.1064862459897995,0.8047313690185547,0.03292526677250862,0.28772592544555664,0.08912543952465057,-0.32723838090896606,0.15053844451904297,-0.010625919327139854,-0.05253264680504799,0.054724663496017456,0.026162415742874146,-0.2626155614852905,0.30594056844711304,-0.28637298941612244,0.34960684180259705,-0.6367051005363464,0.3969201147556305,-0.16844849288463593,-0.11907079815864563,-0.3694709241390228,0.03247679024934769,-0.19771988689899445,-0.35770413279533386,-0.2094673216342926,0.2486540973186493,0.24665673077106476,-0.19200845062732697,0.29949381947517395,-0.012625475414097309,-0.016755694523453712,0.7602528929710388,0.10562320798635483,0.46214085817337036,-0.051921334117650986,0.06210086867213249,0.07327751070261002,0.30781498551368713,0.4057075083255768,-0.22576330602169037,-0.20520362257957458,-0.6476461887359619,-0.3065381348133087,0.3301321268081665,0.1316215991973877,-0.2765873074531555,-0.04148749262094498,-0.020948225632309914,-0.057850420475006104,0.3881073296070099,0.358051598072052,0.0850834995508194,0.16662442684173584,-0.41035082936286926,0.3982308804988861,-0.11074039340019226,0.015661995857954025,0.11819757521152496,0.2908962666988373,0.23999853432178497,0.25210973620414734,0.16591088473796844,-0.3180634081363678,0.06397348642349243,-0.22559447586536407,0.18187017738819122,0.4427621066570282,-0.3675859868526459,0.11170511692762375,-0.04479982703924179,0.11944292485713959,-0.17541754245758057,0.04397106170654297,0.30059897899627686,0.3449729084968567,0.3552577793598175,-0.3445524275302887,0.14078232645988464,-0.049496326595544815,-0.17598740756511688,-0.4696059823036194,0.23834866285324097,-0.02544550783932209,-0.04931069165468216,0.16664056479930878,-0.22530266642570496,0.15673209726810455,0.2364182323217392,-0.15935297310352325,-0.13522671163082123,-0.1597757190465927,-0.25817641615867615,0.09006562829017639,0.0758734866976738,0.30488836765289307,0.0034565168898552656,-0.22590994834899902,-0.4937235116958618,0.003526410786435008,0.005464933346956968,-0.2945150136947632,-0.15631388127803802,0.21635624766349792,0.05599009618163109,0.09316907078027725,-0.36370617151260376,0.7057552337646484,0.1712990552186966,0.13645640015602112,0.2651468515396118,-0.13012804090976715,-0.3159860372543335,0.27105870842933655,0.23634232580661774,0.0945892482995987,0.11382747441530228,0.0497131384909153,0.25206905603408813,-0.13483133912086487,0.1417490690946579,-0.2928880453109741,0.45485126972198486,-0.03495060279965401,-0.0952739343047142,-0.004150729160755873,0.1620565503835678,0.3591884970664978,-0.2990413010120392,-0.17699997127056122,-0.16262197494506836,0.26511284708976746,0.1622331440448761,-0.11556797474622726,-0.12849240005016327,-0.05311623960733414,0.12342125177383423,-0.14679200947284698,0.05969029292464256,-0.1346266269683838,0.24740901589393616,-0.0380597785115242,-0.08593067526817322,-0.05552056431770325,0.2373952716588974,0.19150301814079285,-0.035320598632097244,0.27694809436798096,0.265092670917511,-0.08667425811290741,0.15047460794448853,-0.2532965838909149,0.19655247032642365,-0.18183697760105133,-0.2860071659088135,0.2604421377182007,-0.2147795706987381,0.0790610983967781,-0.0799717977643013,-0.03217221051454544,-0.12138115614652634,0.1342606544494629,-0.15366743505001068,0.3243181109428406,-0.3405113220214844,0.21523821353912354,-0.2526576519012451,0.3729650676250458,-0.0694722905755043,0.04800298064947128,0.4976990222930908,-0.09331350773572922,-0.14979447424411774,0.3714025616645813,-0.14886458218097687,0.06431408226490021,0.20440372824668884,0.01091831550002098,0.3232623040676117,0.31396374106407166,-0.25362685322761536,0.2785260081291199,0.059804804623126984,0.22829727828502655,-0.7815104126930237,0.1940322369337082,-0.19699114561080933,0.2600972354412079,-0.47420716285705566,-0.023995520547032356,0.10645422339439392,0.1357654482126236,0.33918681740760803,0.07457879930734634,-0.08303952217102051,0.3014349043369293,0.01375617180019617,-0.11047741025686264,-0.0912865623831749,0.15779222548007965,0.04440616816282272,-0.2745169699192047,0.3256254196166992,-0.19299781322479248,-0.3677053153514862,-0.03996370732784271,0.06251585483551025,0.2156549096107483,-0.23429018259048462,-0.2810259759426117,-0.42533719539642334,0.015439806506037712,-0.018493641167879105,-0.21257221698760986,-0.3194071352481842,-0.0846191868185997,0.18764767050743103,0.17415261268615723,0.23255452513694763,-0.10933894664049149,0.22684283554553986,0.6344395279884338,0.03805629163980484,-0.6598464250564575,0.2048419862985611,-0.05884866043925285,0.5031673312187195,-0.17848891019821167,-0.17599117755889893,0.5049540400505066,0.1438484936952591,-0.07977215200662613,-0.30023929476737976,-0.15937435626983643,-0.15603043138980865,-0.2400224506855011,-0.7802713513374329,0.2212153822183609,0.034561216831207275,-0.22895292937755585,-0.40984493494033813,0.006037889048457146,0.1507968157529831,-0.12283775210380554,0.3259652256965637,0.23588696122169495,-0.18920806050300598,-0.28102022409439087,0.36010435223579407,-0.4078167974948883,0.26146945357322693,-0.14459359645843506,-0.15673798322677612,0.2653452754020691,0.30703702569007874,0.27679920196533203,-0.12162655591964722,0.16724027693271637,0.30427131056785583,-0.3499036431312561,0.32567402720451355,0.008212043903768063,0.3430531322956085,0.18873882293701172,-0.27547380328178406,-0.15096578001976013,-0.0380924753844738,-0.18455296754837036,-0.08094292134046555,0.020818529650568962,-0.13324744999408722,0.3286029100418091,-0.02730042301118374,-0.20131926238536835,-0.3480251729488373,0.4729270040988922,0.20409831404685974,-0.09905663132667542,0.318947970867157,0.010849609039723873,-0.27989545464515686,-0.08080825954675674,-0.3746810257434845,0.25321632623672485,0.060812704265117645,-0.2920076251029968,0.011756837368011475,0.471901535987854,-0.4662417471408844,-0.02967616356909275,0.4623255431652069,-0.1919219046831131,0.10382447391748428,0.390163779258728,-0.16018226742744446,-0.4811217486858368,-0.6315098404884338,0.3517725467681885,-0.10800998657941818,0.1490059345960617,-0.3081851005554199,0.5858566761016846,-0.1538224220275879,-0.24379953742027283,-0.33583271503448486,0.05409538373351097,-0.023736685514450073,-0.24862852692604065,-0.1785597950220108,0.02435372769832611,-0.23679839074611664,-0.007661912590265274,0.15701046586036682,0.2973615825176239,-0.4065745174884796,-0.1608789712190628,0.14893144369125366,0.09831099957227707,-0.03395428881049156,0.5091086626052856,-0.45367589592933655,0.07498466223478317,-0.3512275218963623,-0.1206730380654335,0.19282302260398865,0.10316033661365509,-0.025010762736201286,-0.0911194235086441,-0.4604349136352539,0.14568538963794708,-0.13937300443649292,-0.1836964190006256,-0.16352343559265137,-0.07700863480567932,-0.38680851459503174,0.15455502271652222,-0.1769021898508072,0.07122401893138885,0.3586830794811249,-0.060271188616752625,-0.12692399322986603,-0.1385173201560974,0.28676244616508484,-0.3330892026424408,0.08797051012516022,-0.06649884581565857,-0.3026284873485565,-0.007624182850122452,0.011535970494151115,-0.6507510542869568,-0.2859856188297272,-0.4792822301387787,0.009300243109464645,0.48862171173095703,0.11042895168066025,0.22822247445583344,-0.10308762639760971,0.629476010799408,0.26388001441955566,-0.18646112084388733,0.1416153460741043,0.05602513998746872,0.12652315199375153,0.20704509317874908,0.2574641704559326,-0.6216281056404114,0.5295588374137878,0.3350318968296051,-0.11808284372091293,-0.09250757098197937,-0.08642924576997757,-0.31725263595581055,-0.23666395246982574,-0.00491065951064229,-0.32384881377220154,-0.27082979679107666,-0.27675655484199524,0.4132160544395447,-0.17622090876102448,-0.4741987884044647,0.16995485126972198,-0.4326627552509308,-0.26830917596817017,-0.1617475301027298,0.29436782002449036,0.11829657107591629,0.07000284641981125,-0.33119997382164,-0.004908170085400343,-0.7768015265464783,0.14736035466194153,-0.8203601241111755,-0.45607200264930725,0.05478736013174057,-0.05227084457874298,-0.20545969903469086,-0.03616822510957718,-0.42693981528282166,-0.20762401819229126,-0.41773349046707153,-0.3584247827529907,0.3842112720012665,0.15339088439941406,0.2599261999130249,0.05922611430287361,-0.0925765112042427,0.2656600773334503,0.1242275983095169,0.14265960454940796,0.09277896583080292,-0.19409561157226562,-0.029209449887275696,-0.031013643369078636,0.02689378149807453,-0.3499828279018402,0.4599640369415283,-0.0022233028430491686,-0.12128793448209763,-0.19956836104393005,-0.08238781243562698,0.10272633284330368,-0.22877992689609528,0.16940703988075256,0.38433095812797546,-0.008431700989603996,-0.05486254766583443,0.19014422595500946,0.24980303645133972,0.27126941084861755,-0.5603249073028564,-0.04282642528414726,0.38604408502578735,0.02944761887192726,-0.16696098446846008,-0.2678685784339905,-0.29181328415870667,-0.015724916011095047,-0.31828850507736206,-0.33509260416030884,0.13182151317596436,0.3789280354976654,0.13845202326774597,0.2532041668891907,0.11702428013086319,0.24750781059265137,-0.1229710653424263,-0.00559533154591918,-0.030824288725852966,-0.28597530722618103,-0.09207119792699814,0.2711877226829529,0.007738115731626749,-0.14686459302902222,0.24579423666000366,0.3323768079280853,-0.25190553069114685,-0.1652507483959198,0.09393526613712311,-0.1390705555677414,0.5864081978797913,-0.20759575068950653,0.1785227656364441,-0.29789331555366516,0.0677366703748703,-0.18855442106723785,0.40730395913124084,0.12010187655687332,-0.12082257121801376,0.39925989508628845,0.13606254756450653,0.2037150263786316,-0.15050727128982544
P4mm_sg,0.1802603155374527,0.025073207914829254,0.3250656723976135,-0.19435735046863556,0.07742168009281158,0.1201464906334877,0.22643975913524628,-0.23964764177799225,0.19792918860912323,0.07076491415500641,0.19481220841407776,0.025158289819955826,-0.06365653872489929,-0.15353550016880035,0.5835740566253662,0.19081708788871765,-0.09684669226408005,-0.16278700530529022,0.04535534605383873,-0.44930705428123474,-0.07234000414609909,-0.004521072376519442,-0.0129208043217659,0.2943204641342163,-0.0028887137304991484,-0.5171719789505005,-0.06782004982233047,-0.0535404346883297,0.43966126441955566,0.043797556310892105,-0.03739539906382561,0.11999213695526123,-1.1750843524932861,-0.16817079484462738,-0.1141982451081276,0.20960770547389984,0.27797046303749084,-0.14843624830245972,0.034932028502225876,0.06868986785411835,-0.21626538038253784,-0.01591954007744789,-0.08406619727611542,0.16581568121910095,-0.01101558469235897,-0.05555958300828934,-0.02469751238822937,-0.36843767762184143,-0.22713346779346466,-0.26200804114341736,-0.22536002099514008,0.18754245340824127,0.06849077343940735,0.1189865842461586,-0.011111091822385788,0.3014492392539978,0.37050923705101013,-0.17757144570350647,0.09988442063331604,-0.20571139454841614,-0.10921526700258255,0.12076779454946518,-0.1171034574508667,0.02478945441544056,0.11878569424152374,0.07944856584072113,0.14093807339668274,-0.29786887764930725,0.2937723696231842,0.07508333772420883,-0.02763327956199646,-0.17189615964889526,0.2433510571718216,-0.08750229328870773,-0.26826012134552,-0.1469665914773941,-0.22186768054962158,0.038474153727293015,-0.15405906736850739,-0.13472500443458557,0.023233899846673012,0.14862138032913208,0.018737372010946274,0.11219165474176407,-0.12282320857048035,0.15680481493473053,-0.21130570769309998,-0.07961691170930862,0.0022715080995112658,0.1339772790670395,0.13872219622135162,0.19686070084571838,0.020606059581041336,0.10806974023580551,-0.2465745508670807,0.20620426535606384,0.2708268463611603,-0.0697808638215065,0.06121380999684334,-0.010682627558708191,0.07175125926733017,0.19794732332229614,0.15130159258842468,-0.21413052082061768,0.07953682541847229,0.16283082962036133,-0.15942178666591644,-0.14514978229999542,0.001946783158928156,-0.07414937019348145,-0.04125865548849106,0.104501873254776,-0.057615067809820175,-0.08865031599998474,0.12854190170764923,0.020762166008353233,0.14724700152873993,-0.15192195773124695,-0.007778473198413849,-0.04089128226041794,0.11682412773370743,-0.11962475627660751,-0.03605440631508827,-0.19308675825595856,0.14126768708229065,0.04616032540798187,0.15856941044330597,-0.15648992359638214,0.036028821021318436,-0.3184308409690857,-0.04351246356964111,0.021552499383687973,0.11330227553844452,0.181311696767807,-0.17505083978176117,-0.14521043002605438,-0.09867334365844727,0.14563292264938354,-0.003416466759517789,0.09548139572143555,0.009164948016405106,-0.013225781731307507,-0.21131932735443115,-0.05854234844446182,-0.1733846217393875,0.07405340671539307,0.037499479949474335,0.2542218863964081,0.1458636075258255,-0.0374114066362381,0.21146254241466522,0.14833590388298035,-0.17146481573581696,0.01606650836765766,-0.09260006994009018,-0.0819065272808075,-0.038844384253025055,0.18003590404987335,-0.06012894958257675,0.07011401653289795,-0.1776217669248581,0.17624562978744507,-0.05160679668188095,0.2276986837387085,-0.009937375783920288,-0.28320714831352234,-0.14865826070308685,0.42619311809539795,-0.3029956817626953,-0.23914359509944916,0.1938195824623108,-0.18535324931144714,0.25370195508003235,-0.058305948972702026,-0.15898668766021729,-0.039893459528684616,0.019052378833293915,-0.04690907523036003,0.09553927183151245,-0.013551054522395134,-0.2282227724790573,0.01984797976911068,0.16528479754924774,0.06639052927494049,0.24580027163028717,0.017986426129937172,-0.2643018364906311,-0.0969000905752182,-0.09048490971326828,-0.1151275560259819,-0.10949236899614334,0.06948350369930267,0.03196689859032631,-0.29617419838905334,0.1378069967031479,0.0666995570063591,-0.25802406668663025,-0.12819580733776093,-0.2957925498485565,0.3776742219924927,-0.004749135579913855,0.03251361474394798,0.01510943379253149,-0.10092946141958237,0.13234245777130127,-0.21962423622608185,0.3102945387363434,0.04377008229494095,-0.11084716022014618,0.023648519068956375,0.34821778535842896,0.04231509938836098,0.06696686893701553,0.16305892169475555,-0.04481683298945427,-0.1232832595705986,-0.07543829828500748,0.09694651514291763,-0.04262203723192215,0.13189801573753357,0.07117234915494919,-0.20283398032188416,0.15076583623886108,0.16774356365203857,-0.5445522665977478,0.07807116955518723,0.09718681126832962,0.3090343475341797,-0.12254199385643005,0.24359065294265747,-0.22907978296279907,-0.17169825732707977,0.26899370551109314,0.17189240455627441,0.20977161824703217,0.0912991315126419,0.15903164446353912,0.05077694356441498,-0.07152446359395981,-0.19360049068927765,-0.054589174687862396,0.04862349107861519,0.09390045702457428,-0.13441796600818634,-0.19247472286224365,0.24934813380241394,-0.1635575145483017,-0.11905049532651901,0.1408679336309433,0.0004776985151693225,0.22924773395061493,0.10064216703176498,-0.18506596982479095,0.12980791926383972,-0.30261462926864624,-0.14038752019405365,0.1867539882659912,0.19702832400798798,0.13145823776721954,-0.11392467468976974,0.21164441108703613,0.23667430877685547,-0.15570762753486633,-0.11041290313005447,0.09554412961006165,0.25164100527763367,0.005407989025115967,-0.23352965712547302,-0.21527904272079468,0.31608644127845764,-0.1566230207681656,-0.07267021387815475,0.009241658262908459,0.19200322031974792,0.1772477924823761,-0.23491165041923523,-0.00694175623357296,0.1266869604587555,0.07965593039989471,0.02595239318907261,0.04602593183517456,-0.0011151593644171953,0.046780556440353394,0.04194599762558937,0.3210618197917938,0.07988014817237854,-0.16470162570476532,0.08139023929834366,-0.07854849100112915,0.09990017116069794,0.13632450997829437,0.29128143191337585,-0.06487644463777542,-0.17061765491962433,-0.07035262882709503,0.11231642216444016,0.019824158400297165,-0.11386231333017349,0.045558277517557144,-0.17715612053871155,-0.2815876603126526,-0.14089596271514893,0.4382806718349457,-0.23396462202072144,0.020635025575757027,-0.24519304931163788,0.03465535119175911,-0.3348427712917328,0.15154945850372314,-0.09838145226240158,0.16593727469444275,0.057448334991931915,0.28039857745170593,-0.09162203967571259,0.0336611233651638,0.051521532237529755,0.11093252897262573,-0.09763950109481812,0.3362458348274231,-0.07488031685352325,0.015370948240160942,-0.1792091727256775,0.11542628705501556,0.28919342160224915,0.043576184660196304,-0.5177299976348877,0.15963467955589294,-0.04218490049242973,-0.10069841146469116,0.1431429088115692,0.08113782107830048,-0.38874900341033936,-0.23968344926834106,-0.10410286486148834,0.10725607722997665,-0.041202522814273834,0.03629734367132187,0.15548455715179443,0.08640427142381668,0.0002645367057994008,-0.1672820895910263,-0.024781370535492897,0.10664775222539902,-0.14769373834133148,-0.2038888931274414,-0.10460159182548523,0.15767714381217957,-0.20248174667358398,-0.28416872024536133,0.43592369556427,-0.1501968502998352,0.18577583134174347,0.20302718877792358,-0.07722190022468567,-0.2340719997882843,-0.07984352111816406,-0.1184910461306572,-0.0556672029197216,0.05171440914273262,-0.11786366999149323,-0.38349223136901855,-0.15607477724552155,-0.04890872910618782,-0.001303143915720284,0.21110744774341583,0.06919505447149277,-0.14564435184001923,0.1372024267911911,-0.004629570059478283,0.04795372858643532,-0.017224138602614403,-0.1038375124335289,-0.07258687168359756,0.012428603135049343,-0.05267207324504852,0.026645665988326073,-0.23368197679519653,-0.20734167098999023,0.04446578025817871,-0.028161972761154175,0.23365361988544464,-0.010721933096647263,-0.001790298381820321,-0.1671745479106903,0.22385631501674652,0.23418475687503815,-0.3613363206386566,0.09908372908830643,0.08377421647310257,0.10114134848117828,-0.1219969317317009,0.06001529470086098,-0.1096697747707367,-0.16428451240062714,-0.15058989822864532,0.07586318254470825,-0.13421858847141266,0.16639742255210876,0.1718718260526657,-0.012432475574314594,-0.08217646926641464,0.4086989164352417,0.10962127894163132,-0.20533132553100586,-0.07763221859931946,-0.6711785197257996,-0.17217637598514557,0.04027019813656807,-0.06058499217033386,-0.03409864753484726,0.060386959463357925,-0.05823173373937607,-0.10825178027153015,0.06322508305311203,0.09890983998775482,-0.2518359124660492,-0.0685603991150856,0.13177144527435303,-0.240512415766716,-0.21956850588321686,0.20454148948192596,0.03209667280316353,0.08082925528287888,-0.07936326414346695,-0.10262584686279297,-0.11626657098531723,0.09541463106870651,-0.27698445320129395,0.2230999916791916,0.17060619592666626,0.06899089366197586,0.053746119141578674,-0.08905336260795593,0.11319458484649658,-0.128684863448143,-0.21186605095863342,-0.15490417182445526,0.0906362235546112,0.0040736994706094265,-0.2080504298210144,-0.22877509891986847,0.11974184960126877,0.07284747064113617,0.11544610559940338,-0.18902333080768585,0.1380668431520462,0.1256740242242813,0.22616803646087646,0.24790038168430328,-0.2668936848640442,0.004842280875891447,0.4158642292022705,0.36104342341423035,0.20510181784629822,0.13989335298538208,0.2546151578426361,-0.024140382185578346,-0.24770571291446686,-0.05869900807738304,-0.3565623462200165,0.1782589852809906,-0.24046428501605988,-0.05234687402844429,0.2075938731431961,-0.29128435254096985,-0.018544886261224747,-0.16147008538246155,0.018459295853972435,-0.11775252223014832,-0.02333170920610428,0.15174436569213867,-0.12111863493919373,0.031178107485175133,-0.19000613689422607,-0.539094090461731,-0.11076747626066208,-0.04901032894849777,-0.4166378378868103,-0.17729640007019043,-0.219669908285141,0.061607327312231064,0.0048680854961276054,0.15200981497764587,0.43617555499076843,0.01835714466869831,0.03582064434885979,-0.12549735605716705,0.004438139498233795,-0.18086838722229004,0.2252141684293747,0.031105531379580498,0.004897722974419594,-0.01232464611530304,-0.14705069363117218,0.0496557243168354,0.22558532655239105,0.11247587949037552,-0.2151269018650055,0.05972899869084358,0.15017883479595184,-0.23564444482326508,0.570382297039032,-0.2476615607738495,-0.15048344433307648,0.22176150977611542,0.24085643887519836,0.04970522224903107,-0.4047982692718506,0.5296601057052612,-0.13354477286338806,0.10443733632564545,-0.15465468168258667
P4_332_sg,0.031964462250471115,0.31652066111564636,0.1656380295753479,0.23560434579849243,-0.20896412432193756,-0.23408633470535278,0.1904371827840805,0.013186798430979252,0.13231801986694336,-0.11740557104349136,0.0967407301068306,0.2646057605743408,0.15239369869232178,0.04293018952012062,-0.21669615805149078,-0.383381187915802,0.0037149174604564905,0.13329999148845673,-0.09240786731243134,-0.21464520692825317,0.08213154971599579,-0.062292374670505524,-0.032300859689712524,0.005708459299057722,-0.6087642908096313,-0.32010892033576965,0.35289129614830017,-0.1878305971622467,0.01397882029414177,-0.07015417516231537,0.10913234949111938,-0.4347587525844574,-0.4086439609527588,0.07197687029838562,-0.842471182346344,-0.3786320984363556,0.3472215235233307,0.3829464912414551,0.15118521451950073,-0.059529781341552734,-0.042039904743433,-0.020327329635620117,0.1058836355805397,0.574734628200531,0.18439897894859314,0.217630073428154,0.06934532523155212,-0.4126143157482147,-0.27754461765289307,-0.4799857437610626,-0.18751493096351624,0.16147738695144653,-0.48193520307540894,-0.14498385787010193,0.6101080775260925,-0.4121580421924591,0.08754567801952362,-0.07891714572906494,0.2639201283454895,0.005826460663229227,0.0413021557033062,-0.35982102155685425,0.08010363578796387,0.25021907687187195,0.05352594703435898,-0.30922022461891174,0.4229075014591217,0.26767516136169434,0.31590041518211365,-0.023773785680532455,0.07493956387042999,0.295761376619339,0.28969281911849976,0.10922610759735107,-0.07823153585195541,0.14281705021858215,-0.020501477643847466,-0.07591219246387482,0.09981409460306168,-0.22109632194042206,-0.4833795428276062,-0.055473003536462784,-0.339762419462204,0.18143264949321747,0.26490870118141174,-0.10450251400470734,-0.00157044711522758,-0.3273254632949829,0.030475927516818047,0.04241441190242767,0.09900200366973877,-0.024734001606702805,-0.525140106678009,0.16373801231384277,0.24253888428211212,0.2069297581911087,-0.2804979383945465,-0.007661603391170502,0.3214947283267975,-0.10842626541852951,0.2644997537136078,-0.15392765402793884,-0.13635492324829102,0.3619699478149414,0.18098817765712738,-0.042651623487472534,0.371118426322937,-0.1393781304359436,-0.0652887374162674,-0.09678909182548523,0.11777599900960922,-0.40121790766716003,0.15433672070503235,-0.1712704449892044,0.10148396342992783,-0.41419702768325806,0.09281635284423828,-0.5278488993644714,0.021220000460743904,-0.2909759283065796,-0.09631574153900146,-0.2860420048236847,0.03473227843642235,0.059939444065093994,0.09803448617458344,-0.20435522496700287,-0.223077192902565,0.358978271484375,-0.045979756861925125,-0.08959280699491501,0.23922747373580933,-0.26118290424346924,-0.05994262546300888,-0.12907443940639496,-0.349355548620224,-0.18339772522449493,0.053063079714775085,0.4386488199234009,-0.2899637222290039,0.03784188628196716,0.10664048045873642,-0.1724817454814911,-0.056171830743551254,-0.06976909935474396,-0.2473815679550171,0.1822354793548584,-0.35929420590400696,0.043206993490457535,0.25642597675323486,0.3554454743862152,-0.09141705185174942,0.09785651415586472,0.14223745465278625,0.43340036273002625,0.25555601716041565,0.09142638742923737,0.2253330498933792,-0.03307143971323967,0.51839280128479,0.02792198956012726,-0.12034538388252258,0.4105314314365387,0.2356610745191574,-0.5719884037971497,-0.10043098032474518,0.19706350564956665,-0.15513768792152405,0.03797610476613045,-0.3150962293148041,0.28963702917099,0.05859033763408661,-0.31353190541267395,-0.016944151371717453,-0.057575542479753494,0.12011373788118362,0.08437610417604446,0.004441347438842058,-0.4255542755126953,-0.2715407907962799,0.016927357763051987,0.08108930289745331,0.04125497490167618,0.0320698581635952,0.09771893173456192,0.5587207078933716,-0.24609403312206268,-0.29609379172325134,0.05288271978497505,-0.03837275505065918,0.01260412484407425,-0.10165335237979889,-0.16279077529907227,0.03351066634058952,-0.1025400459766388,-0.16680921614170074,0.3393041789531708,0.11858397722244263,0.10442476719617844,0.06017667427659035,0.09301963448524475,-0.31723901629447937,0.13427330553531647,-0.6492825746536255,-0.004939430858939886,-0.26091304421424866,-0.027953606098890305,-0.10290629416704178,0.10647524893283844,-0.14741550385951996,-0.003986499272286892,0.5934151411056519,0.5148400068283081,0.28848588466644287,0.048374440521001816,0.09944579750299454,0.03370792046189308,0.48030346632003784,0.2330867499113083,0.260121613740921,-0.019880171865224838,-0.07071453332901001,0.19369098544120789,-0.09048545360565186,0.0902397409081459,-0.5260246396064758,0.05570155009627342,-0.092209592461586,0.31338751316070557,0.11801560968160629,-0.3431704640388489,-0.06325848400592804,-0.20682285726070404,0.37061700224876404,0.09855525940656662,-0.2248782366514206,-0.14437784254550934,0.14706365764141083,0.17829863727092743,0.15535034239292145,-0.02555277943611145,0.07002127170562744,0.036961209028959274,0.14837421476840973,-0.15737800300121307,-0.3538372218608856,-0.2808610796928406,-0.057986315339803696,0.2543262541294098,0.052173227071762085,0.07419715821743011,0.035468120127916336,-0.08866885304450989,0.18163292109966278,-0.004534966312348843,-0.017558904364705086,0.7092878222465515,-0.10676003247499466,-0.258512020111084,0.2723626494407654,0.38468948006629944,0.07520125806331635,0.5441348552703857,-0.1569763571023941,-0.780135452747345,0.26149821281433105,-0.1615421324968338,-0.05974524840712547,0.24434098601341248,0.3231930136680603,0.44833704829216003,0.17232869565486908,0.234519824385643,-0.27466264367103577,0.16475927829742432,0.0928344652056694,-0.059559036046266556,-0.04917731508612633,-0.08875859528779984,-0.13723666965961456,0.10401345789432526,-0.20863665640354156,0.04647497832775116,0.35772067308425903,-0.28142255544662476,-0.1446002721786499,0.34139636158943176,0.21691246330738068,0.061730045825242996,-0.18962572515010834,0.3198907673358917,-0.053241923451423645,0.10616502910852432,0.1674836128950119,0.12549319863319397,-0.1034407839179039,0.19182763993740082,-0.2891407012939453,0.14623025059700012,-0.18883349001407623,-0.5322011113166809,-0.025352254509925842,-0.11112351715564728,-0.039188727736473083,-0.24495448172092438,-0.34975194931030273,0.6042382717132568,-0.10502602159976959,-0.1455959677696228,0.14598369598388672,0.2655505836009979,-0.12429342418909073,0.213986337184906,-0.03047187067568302,-0.4274468421936035,0.06161404401063919,-0.07966326922178268,-0.17042116820812225,-0.1172545999288559,0.4214075803756714,-0.1610899269580841,0.2768242359161377,-0.3758408725261688,0.0660560205578804,-0.3768017292022705,0.2981567084789276,-0.3412282168865204,0.0555587001144886,0.17814266681671143,0.06231715902686119,-0.19716764986515045,-0.07206173241138458,0.014019286260008812,0.5888461470603943,-0.09066760540008545,-0.1371438056230545,-0.059832632541656494,-0.19156216084957123,0.08487581461668015,0.2015635371208191,0.23564091324806213,0.5500748753547668,-0.4493728280067444,-0.01383628323674202,0.3386929929256439,-0.20906224846839905,0.04612831026315689,-0.6539092659950256,0.1823905110359192,0.008217725902795792,-0.03678353875875473,-0.03704192861914635,-0.3628378212451935,-0.15911148488521576,-0.04218064621090889,0.38523542881011963,-0.3718236982822418,-0.22058779001235962,-0.4585806131362915,0.11894306540489197,-0.32511019706726074,-0.21493078768253326,0.1192689836025238,0.11111422628164291,0.199851855635643,-0.2878219187259674,0.10243093222379684,0.3900201916694641,-0.03347330167889595,-0.07536164671182632,0.6458418369293213,-0.22508659958839417,-0.4007536768913269,-0.5120667219161987,-0.17034724354743958,-0.12536518275737762,-0.03317384049296379,-0.44500860571861267,0.04574792832136154,0.30049002170562744,-0.3073997497558594,0.06662994623184204,-0.27773869037628174,-0.1324511170387268,0.3335556983947754,0.1903463751077652,0.16313721239566803,-0.1264377236366272,0.018755454570055008,-0.0893080085515976,-0.16459742188453674,-0.09489843994379044,0.13236114382743835,-0.3616165816783905,0.028799191117286682,-0.17555753886699677,-0.1681491732597351,-0.09604846686124802,0.4318506419658661,-0.15307486057281494,-0.08856841176748276,0.11545591801404953,0.13996049761772156,0.15268546342849731,-0.22419624030590057,0.39245083928108215,-0.5140812993049622,-0.4614883065223694,0.3624189496040344,0.44935810565948486,0.029843585565686226,-0.509939432144165,-0.2507334351539612,0.1179942935705185,-0.029437672346830368,0.006345856934785843,-0.34890711307525635,-0.09818687289953232,0.16406674683094025,0.2520272731781006,0.1206333339214325,-0.04447502642869949,0.1168612390756607,-0.1629801094532013,-0.19096539914608002,-0.033458590507507324,8.752431313041598e-05,-0.40332961082458496,0.006752659101039171,-0.04748401418328285,0.3045840561389923,-0.030591627582907677,-0.5270029902458191,-0.11524862051010132,-0.009691189043223858,0.1711246818304062,-0.40341058373451233,-0.09566264599561691,0.1518981158733368,-0.47370144724845886,0.07820974290370941,0.05667500197887421,0.43483516573905945,0.26203951239585876,-0.1876867562532425,-0.6146789789199829,0.16419939696788788,0.62989741563797,-0.08338162302970886,0.11957762390375137,-0.16532251238822937,-0.015118394047021866,-0.20220038294792175,-0.4361775517463684,-0.1796107143163681,-0.25839439034461975,0.059098150581121445,-0.12401556223630905,-0.4464404284954071,0.06432575732469559,-0.16424690186977386,0.25116854906082153,-0.1093190535902977,0.1594255417585373,-0.09907490015029907,-0.3735562264919281,-0.19613999128341675,0.04058431461453438,0.3415214717388153,0.3591597080230713,-0.2196711301803589,0.02275710552930832,-0.03502468764781952,0.017569418996572495,-0.1271282136440277,-0.03552362322807312,-0.005700494162738323,-0.015014664269983768,-0.3425697088241577,0.08312775194644928,0.037582408636808395,-0.084776870906353,0.11026697605848312,0.06884461641311646,-0.05237289145588875,-0.1271248161792755,0.26557499170303345,-0.19411496818065643,0.26065823435783386,-0.3543876111507416,-0.04762569069862366,-0.01481594331562519,0.01324763335287571,-0.07728487998247147,-0.5834982991218567,0.4409603476524353,0.17480836808681488,0.06359795480966568,0.004945354536175728,0.1713307499885559,0.2589094340801239,0.461741179227829,0.4422770142555237,0.12331298738718033,-0.06063945218920708,0.33920177817344666,0.025764577090740204,-0.08888021856546402,-0.20580121874809265,0.41827303171157837,-0.09681136906147003,0.32567912340164185,-0.4538875222206116
